2747 10
the 0.42145327 0.93435585 -0.050913863 0.5933177 -0.21601571 -0.12696265 -0.31750822 0.32414213 -0.6459642 0.24868385
to 1.0475776 0.11865793 0.20137292 0.2997035 1.8839275 1.0127472 0.43215635 0.042135492 -1.3973458 1.596289
of 0.45693633 1.6095544 -0.1160203 1.438339 0.49805647 -1.0714799 -0.24574965 0.70013446 0.23555306 0.730954
in 0.6596761 0.8993401 -0.8013986 1.2466918 -0.10345672 -0.10488145 -0.5411669 1.5596406 -0.48680386 0.045864347
and 1.5198611 0.837282 -0.39575276 0.6028466 -0.05713389 -0.28663543 -0.0138662 -0.35450247 -0.011655975 0.24535859
he -1.7924203 -2.0077689 0.22192723 -0.0040569264 0.7413871 -0.7793918 4.479885 0.6558656 -3.2846293 0.21990451
is 0.9849198 -0.2520628 0.73589057 2.7732027 -1.2196003 1.1862631 0.48959047 -1.4819036 0.4958088 3.548309
for -0.25314927 1.0133342 0.52995384 0.49741456 0.97049254 1.3203019 0.0036020766 0.96392065 -1.1545135 1.9634465
on 0.68391025 0.14063792 0.37408826 1.0600988 0.21733415 -0.6896739 -0.4670443 0.4039356 -1.7503967 -0.4855752
said 3.1937485 -2.8779233 2.4060543 -2.2517996 -1.3997447 -1.7116798 2.504187 0.4238831 -1.640839 0.989235
that 0.34610724 -0.41360515 -0.9629362 -0.2490195 0.97131073 -0.36739182 3.6288536 -0.4755317 -0.65413815 1.1925302
has -0.20624112 0.54577523 2.7133164 1.9156919 -3.2750587 -2.089301 -0.2810474 -1.1294893 0.967318 3.6151087
says 0.79313177 1.5621682 4.861071 -0.5116072 -3.1180484 1.5937238 1.8820276 -2.5180109 0.075411916 2.3614666
was 0.90185875 -3.432186 0.685233 2.3795426 -4.91186 -1.4858565 1.8686312 2.3155057 -0.8740993 0.46076724
have 2.8587346 -0.3608602 -2.6012325 1.0765555 -1.905756 -2.4170465 0.5973699 -1.7627788 2.478764 3.684543
it -0.25180826 -0.78080857 0.62655413 0.5211681 0.90684724 1.0059104 3.6311803 0.39482275 -1.6235842 0.8986262
be 0.66259855 -2.1072164 -3.1436055 3.3974319 -2.327121 2.2233179 -0.015999729 -3.0294745 -1.4592698 2.397049
are 3.6139045 1.7941613 -2.8124716 0.4602795 -0.5546744 0.76778924 0.20153794 -3.2796025 2.406338 3.9420142
with 0.02097206 0.36031908 -0.16056576 2.0374372 -0.03976752 0.4989104 -1.0262786 0.17965694 -1.0221812 1.4198053
will 1.2303182 1.6179821 1.1607585 3.0731182 3.1871789 3.321466 -1.0485963 -0.89617497 -1.0603634 4.6476555
at 0.4584595 2.4452453 0.6847078 1.0485158 1.0977789 0.38865507 0.6949653 4.144292 -0.016037585 -0.123427026
mr -0.7010866 -2.6002438 3.891787 -1.5622323 -0.08899708 -1.138655 3.1955457 0.34542266 -4.508423 1.2128854
from 1.072493 1.3392481 -0.025373995 0.81026405 -1.6182739 0.16113159 -0.4365443 0.17863695 1.0466708 1.0012027
by 0.14262086 0.5873638 1.7482536 2.7110624 -0.9465887 -2.0812993 -1.0137235 0.97090346 0.05581197 2.0576632
we 2.399919 -1.5378791 -3.6657846 -2.7714877 5.0524945 2.2853084 5.619454 0.085172914 -4.4739985 0.97494
been -1.3992716 2.1477494 -3.115599 -3.4437656 -2.401119 -1.9981525 2.1680443 -1.4801902 -0.079940945 -0.31322035
as 3.4089847 -0.77766794 -1.8435636 0.8871646 1.4147773 -1.6373267 2.8403497 -0.98264503 -1.2006557 -2.826466
an 0.839806 1.0041517 1.3606927 0.32054013 0.18676133 -0.26316836 -0.66377103 0.6346746 -1.6615229 -0.85744065
not 0.42647454 -0.47509298 0.59535074 -1.044281 1.1843015 0.20210566 4.360555 -1.3856217 -0.76106864 2.6185884
his -1.5309405 -1.7565494 0.39437497 -0.020900564 -1.1216769 -0.04069405 1.7355416 0.98523444 -3.6020834 -1.1281132
but 0.65842843 -0.6167435 -0.80216545 -0.5458647 -0.97164226 0.17536014 1.8347626 0.2426621 -0.37367964 1.0345751
they 2.5180857 -0.058316067 -4.598407 -3.6418974 2.5532577 -1.7732494 4.670413 -0.3031632 -1.1244923 0.15917665
after 1.62007 0.2720576 1.6584073 0.73728245 -1.6463715 -0.3906942 -2.114603 4.496604 -1.2506706 0.64341426
were 4.535561 -1.3820496 -2.8119228 -0.5534143 -4.514322 -3.674683 1.7429559 1.1821333 2.1016288 0.56768084
had 2.773849 -3.7685003 0.23793174 0.5236518 -1.7084621 -4.1629634 2.6522176 3.6047938 0.37154827 2.7571356
there -1.5624512 3.267123 0.10509788 -0.5940021 3.3270254 -0.8068471 7.868421 0.072391525 0.6009687 1.3507692
new -0.508983 5.0443373 1.5156167 0.34532177 -0.90647745 1.3775947 0.4788694 -0.2873793 -0.86101305 -3.5469751
this -0.32469264 0.8564278 -0.44573155 -5.1742835 0.67056155 4.37168 2.3758914 2.3909285 -4.2284937 -0.93261814
australian -1.9368091 4.918022 1.9885303 0.6822161 -2.4937897 0.82673866 -0.96006143 -2.954103 0.90502554 3.5631194
australia -0.9938263 3.2440958 -2.0212407 1.2899307 -1.0738719 3.6220987 -0.21680069 -3.164848 -2.5108209 -2.6956568
who -2.3925302 0.16337255 -2.7084332 -2.4215162 -2.3948994 -3.1403708 2.678606 1.3320198 -0.80873466 0.49379435
people 1.5449182 1.8828009 -6.820895 -0.62808937 -2.6339972 -2.9659314 2.395214 -1.6881994 1.4195994 -1.7561024
palestinian 5.926154 -1.2374852 0.8318875 -0.45259628 -0.56089294 -6.4007845 0.36735073 -3.5821416 -5.8774867 -5.4977074
their 2.3648975 0.98575234 -3.7618587 -1.6901994 0.5486425 0.08119002 -0.8842306 -0.8642643 -0.18656233 1.8851049
government -2.2302885 1.5019475 1.7654392 2.8901336 2.2280037 -0.0070178728 -0.39778054 -4.922314 -3.9189582 2.2756248
two 1.3734959 1.9700476 -0.5798053 -1.9246137 -2.9384778 -2.3276892 -1.2676692 4.3908067 0.68878067 1.0610689
up 3.2728655 0.53377724 -0.33997023 2.232 0.30489552 1.4111197 -1.0423899 1.0141797 -0.06757872 -0.24383034
south 1.4735111 5.846383 -3.9909067 7.341719 -3.1695302 0.48244566 2.0017803 -0.21888402 0.8791379 -6.715777
us 2.8900254 -2.666838 -3.0804842 -1.1768879 3.1723113 -2.978236 -1.0646826 -0.849256 -4.85788 0.6965174
which 1.8192575 1.2116784 -0.4748394 0.8609492 -0.97957116 0.032270037 -0.4682372 0.08453118 0.50206804 -0.0012827227
year -4.8868337 -0.042978242 -0.14876398 7.3372755 -6.27801 -3.2624092 4.724249 2.230314 -0.56313103 -1.8118486
one -0.95321465 0.49099055 -3.2278142 1.4755361 -0.635249 -0.18220773 2.895174 2.42802 -0.23123343 -1.6883665
about -0.029808667 0.40165406 -1.2732176 -2.848689 -3.5323405 2.2691019 0.76982343 0.4914443 0.038799204 3.3436599
out 0.46695432 -0.6053156 -2.642812 1.0031772 -1.7031453 0.19768383 2.080851 0.57171285 -0.00095427467 -0.5206752
if 4.2082424 0.24054201 1.3599305 -0.63251406 2.3288817 2.0510805 4.9710326 -1.7679671 -0.03707895 1.7954512
also 1.1642934 1.4183651 0.92679876 -0.04427126 0.06658058 -2.0365493 2.067422 -0.6178412 1.2298491 0.84252
more -3.4811258 3.346147 -5.047016 -4.3843646 -7.440527 -1.8304914 3.2754676 -6.0050335 -0.7555672 -1.625545
when 3.1431906 -3.5150697 1.404101 -0.84075946 -5.4124684 -1.2348632 3.9509466 3.534619 -1.1186477 -1.2785157
its 1.7883402 1.6015351 0.19837865 1.937025 1.3418432 1.4928819 -3.238272 -2.7746174 -3.1592422 -0.521034
into 2.2039876 1.2410704 0.22538146 1.982889 0.60765 0.3102013 0.71282136 2.5641286 1.0504007 0.17105523
would 0.8988874 -0.8308919 2.2983088 3.247525 4.1244893 0.45106304 2.5173366 0.90354365 -1.0036044 4.7783475
first 0.015198985 1.2536753 -0.3941448 2.1183739 -0.16364142 2.5092363 -1.5466413 3.6148715 -3.1606107 -1.1980563
against 0.8008451 0.114624694 -1.0544611 3.8250134 1.8599246 -0.84810364 -0.96702325 -1.0425566 -3.4013944 -1.7466972
last -0.7338271 2.4228954 2.0297713 -4.771021 -4.9963546 1.5807343 -0.29408002 5.532165 -1.0894998 0.82370275
israeli 4.533096 -0.15030524 1.1348977 -0.33689603 0.16713674 -7.9799495 -1.1730369 -2.053293 -4.1151495 -2.1927738
minister -1.8594433 4.8045316 6.6728783 -1.7152092 -0.14447081 -0.9804092 2.9246871 -5.2066064 -6.475033 -3.8099077
arafat 2.9200017 -4.2074203 4.0502253 -2.4411037 -1.772249 -3.8668222 0.07381669 -2.4411783 -7.813891 -1.1622065
all 2.1735916 -0.75646925 -2.314537 1.7933415 1.3906686 -0.7150233 0.9059873 -1.0205075 -0.20405382 1.6929743
over 0.13789646 3.348147 -3.6341782 2.3802247 0.5782863 0.39106664 -2.5480144 3.4416559 1.1394596 3.934161
afghanistan 0.68504834 -2.7575626 -3.0102901 -1.1771532 1.4798974 -1.571235 -3.0583272 2.3974047 -4.9257507 5.9428453
three 3.3289516 1.3653696 -1.4750557 0.43386772 -3.4607854 -2.887804 -0.994181 4.5509963 1.4256487 -0.59991306
united -2.7628636 -3.6674907 -2.2801251 8.040495 0.46821862 -2.1343515 -4.3079357 -2.8566318 -7.382662 5.5172772
no 0.51279086 0.30035418 -1.3085442 -2.5280893 -0.49178457 -1.420651 4.530104 0.112072654 0.94665897 2.538054
world 0.22723342 2.342998 -6.5962677 5.8812914 1.8124428 1.3908865 2.0557554 0.40224856 -0.06123606 -1.4496194
police 1.2904133 0.97297496 1.2874572 -0.28743023 -1.7520828 -5.954897 0.9737507 -0.106268704 0.44433346 -0.61461914
or 1.4661472 0.5866193 -1.314923 1.2098529 0.6589228 -1.2234868 3.2461808 -1.1886176 1.1884894 1.2856385
than 0.1870423 4.360759 -3.8277037 -6.62159 -4.053488 1.305898 -3.832275 0.17373212 -0.16988295 5.912783
attacks -0.032659594 -1.386589 -5.1356535 4.376913 -0.20466837 -3.8561106 -2.4139512 -2.5513482 -6.5594115 -2.8564906
before 0.71078396 -1.1619091 0.7333087 1.8872513 -1.5370913 2.7289143 -1.3145298 4.9511056 -2.193789 2.3470898
fire 4.7751007 2.021723 -0.45901218 0.7496087 -0.56771713 -2.5277648 2.4535506 -0.9079387 1.3407902 -3.391233
day -0.92618275 0.6567269 -1.6262137 3.0562794 -1.866178 1.3537315 1.0199004 2.580238 -3.156044 -4.16292
security 3.39342 0.5291956 1.9635197 -0.8243276 0.7981557 -1.6392406 -3.0901265 -1.3881444 -2.1247847 2.4711578
some 1.0982696 0.7213413 -1.9609412 -1.7405367 -1.6950963 -1.6515346 1.7374501 -1.2966577 1.3022335 1.1455139
states 1.7316505 -2.383933 -4.883998 -4.65412 -5.6824913 -0.07470505 -4.8648353 -5.516892 -7.312415 -0.23281239
you 0.6675255 -0.741043 -6.4885335 -4.0090766 -0.4391192 2.7239547 9.08756 0.7393049 -2.5619028 1.2196509
could 0.7866518 0.35846406 0.23726945 1.5755249 1.5100591 0.402061 2.4769557 -0.47795236 1.0024981 3.9060369
them 3.715262 -1.7925705 -2.490782 -1.1510111 -1.9140819 -1.3889197 2.4699192 -1.216386 -0.4550761 -0.8462226
say 3.305228 -1.0107607 -2.0055661 -2.4352567 -1.2916518 -3.6000545 1.0700175 -2.0277488 0.8965213 3.8228562
today 2.4627104 3.3002186 2.4779575 -0.5326026 0.23458101 2.8354752 -0.50239366 -0.30863705 -0.8423129 -1.0115975
now -0.10540708 0.18859729 -3.0965862 -0.8043248 1.8096266 -1.5816189 0.60163224 -1.18777 -1.2552427 2.4960673
told -1.4138837 -1.1515138 3.710652 -3.4399648 -4.334586 -3.9233456 2.7414565 1.923062 -2.0826726 1.0872456
time -0.10001433 -1.6562153 -0.9176039 -0.7867284 -0.64156395 1.8357447 1.3172227 3.810459 -3.0809004 0.4223515
any 1.7310923 -0.46817893 -0.89413613 -1.6064959 -0.72236204 0.6937889 2.2112918 -3.0866146 0.16108656 4.5108805
very 1.4753575 -0.94467914 -2.57135 1.3587621 0.43710673 2.4806752 5.626263 -1.4334557 -0.79952896 1.2996532
laden -4.8329186 -0.336596 -9.949834 -4.070365 2.29291 -1.6828347 -0.50351024 1.7113528 -7.5599737 6.450223
bin -3.2432349 -2.4233532 -9.860751 1.8362595 3.7371635 -4.486052 2.1177373 2.0950637 -6.2012854 6.2041063
just 1.2045898 -0.8523953 -0.17456059 0.027371995 -1.4431969 2.114657 3.0046067 4.9543366 -0.5062655 1.5722331
can 4.837754 -1.823313 -2.407807 1.650681 3.062704 2.1765099 4.060725 -2.2184217 -1.5467992 1.5787379
what -0.5703741 -2.3616366 -2.007298 -1.9556143 -0.06277051 -0.05369015 5.263814 -2.0939157 -2.6932595 2.5034938
president 0.67741686 -3.0883677 3.2501597 -0.76963395 0.50528574 -0.43583757 0.8673005 -0.75586385 -6.0395885 -0.4143231
sydney 2.0150335 6.4320164 -0.9162264 -0.22320232 -0.9395758 1.3773947 -0.7360181 2.3475554 0.5164156 -2.8885849
company -2.7737057 2.1582632 -2.3090665 1.0298378 -0.15794747 0.5188328 2.4790215 -1.1926956 -0.44130978 1.1460944
still 2.148917 1.6186563 -2.442668 -0.7121272 1.896907 0.40781087 2.0167098 0.38727787 1.0103881 2.3982117
four 2.3355205 1.2670755 -1.6219554 -0.8108045 -1.2800702 -2.1901844 -1.0278213 4.0297403 -0.1535066 0.1524678
man -4.089755 -1.7471138 -1.4992414 0.65903354 -3.5238547 -3.802835 1.9810282 1.3957403 -2.4477398 1.8895596
killed 2.9975443 1.1695073 -2.2954912 -1.4854001 -3.486745 -7.9568715 -0.4049266 2.6479688 -0.5540846 -1.3080508
taliban -1.2283416 0.78905743 -3.427058 -1.2599038 3.214842 -5.483352 -2.0323765 1.4316077 -3.4602396 5.2187915
al -2.5549176 -0.78915757 -5.1094875 0.36172476 1.8031641 -7.84022 -0.8143418 0.14331089 -4.4290214 6.358832
forces 4.8671103 -1.4093395 -3.3048732 -2.1585093 2.3979075 -5.7713494 -1.4887722 0.5844122 -2.6430697 3.6207013
our 3.5442588 -0.353698 -3.2482996 0.082402386 3.6300213 2.1690135 2.976859 -1.8517714 -2.3851244 0.14121507
around 3.7526503 2.6689289 -3.0808272 -0.4769466 1.2270771 -1.1993462 0.55026597 1.5345669 1.6513574 0.272558
west 7.030817 5.5966005 1.0818895 -1.5048461 0.5305355 -2.5529082 -2.3261154 0.5304139 -0.37879393 -3.2046614
being -1.0040767 -0.014527842 -1.7911077 -2.578364 -1.3587681 1.0294671 -0.016995674 0.5254883 -2.1277938 1.3481464
days 0.62270164 0.36113465 -2.6622736 0.58646667 -2.5341513 0.3001348 -2.3411968 5.7693286 -0.57926565 3.294566
old -4.37569 3.4410272 2.9524245 -2.4752483 -5.1635823 -0.5107346 3.1117556 5.747183 -2.0205579 -0.67307824
other 0.69307226 0.7505009 -2.982457 1.3872831 0.059800737 -1.8967026 1.1405867 -1.6285818 0.5667955 0.3617712
officials 2.7719963 -0.2821697 0.21555392 -1.3411565 2.6495562 -6.121931 1.4597316 -0.23513907 -1.6512341 1.0790573
where 1.9262683 0.31027845 -1.8163536 -1.2874295 0.060384255 -0.8852093 1.7597742 2.6265783 0.73106974 1.4756219
so 4.0297375 0.5477229 -2.5191686 1.3634071 1.6010704 1.0232685 5.1456633 -2.898483 0.105988756 -0.6763104
test -0.5059728 2.4126747 -1.5308238 6.967536 -1.8563719 5.1869187 -0.049941245 4.813632 -5.587549 -2.9289315
qaeda -3.2975268 1.8837005 -6.357882 -1.4685165 2.2203584 -7.7420344 1.2045034 1.383015 -3.5177727 3.97666
israel 1.0925379 -0.8273211 0.3567821 0.96276456 0.8815663 -3.1181693 -1.3072287 -2.159617 -6.330271 -2.9494853
next -0.1663652 2.2496314 1.6296521 -0.20969944 -1.0130212 5.1038213 -0.92042834 4.061968 -1.2748417 2.2900448
per -1.0610499 6.589728 2.720237 1.0939348 3.6548142 1.8499476 1.6301494 5.629008 1.8801163 6.4570503
general 0.05519485 -1.7549374 6.6467094 -1.9599168 -2.6769464 -0.0976264 2.872984 -1.0735275 -4.4276023 1.7275169
think 0.8169602 -0.25791982 -2.7550356 0.14569667 1.0577193 2.60812 5.847345 0.12182798 -0.29722238 3.744058
federal 0.01300874 0.93786347 3.3381853 1.6107663 -3.2537363 -0.15013753 -0.23955044 -4.928351 -1.8448431 1.639173
she -0.08895315 -2.0027905 0.30518472 0.96509016 -0.532184 -0.8348737 7.7515464 1.5501292 -2.246787 -1.2701964
force 3.4151902 -0.39772987 0.41795442 1.940038 0.23155601 0.27075332 -3.4159172 -3.0447824 -2.708224 1.3532566
cent -6.1977487 4.9646554 -1.5978252 6.876718 -0.7382657 -1.1725395 5.6265144 0.39125326 2.0955853 3.6464877
workers -1.3060508 5.258565 -1.4148287 -1.9556204 -1.9717474 1.8273412 -1.400287 -2.8771582 -0.0047056684 5.875709
leader 0.15834777 -1.3552448 5.2604213 2.9390173 0.20544955 -4.9987926 1.1785219 -0.43879884 -3.4303107 1.4873695
yesterday 1.305422 1.971706 2.1508977 -1.2469251 -1.2146896 1.674403 -0.14355844 2.0895805 -1.5860279 -1.7374334
under 2.8453555 0.507544 0.7891689 1.3366072 0.18960182 -0.38241437 0.021825561 -1.2779117 0.20956972 0.97734016
hamas -0.26293784 0.31734172 -0.65068233 -1.3539006 -0.9724039 -8.269923 -1.2960054 -1.4927732 -4.5705614 -0.4294636
take 2.561843 -0.3528589 0.72723347 2.3789585 -0.40438318 1.506286 -0.37188515 -1.0870985 -0.47067615 1.5690793
state 1.8207895 3.9237165 1.8943955 -0.9767076 -0.8954298 -0.5552123 -1.7150462 -2.9176006 -0.8523719 -1.8891883
him 0.858664 -2.3147333 1.5868205 0.050084062 -1.584564 0.8554922 1.9199342 -0.13259847 -2.516649 0.19908045
those 1.9789277 0.005654365 -4.7857056 0.5345897 0.46989802 -0.52392864 1.6245681 -1.6174347 0.041815888 0.687639
bank 4.3198833 3.6629214 4.0914755 2.984697 -2.2950363 -3.4500163 -1.5904815 -0.4518623 -0.39435804 -2.7576735
years -0.50291896 0.20727238 -2.0318682 1.0525414 -2.0474114 -1.6630563 0.756167 3.8271704 0.5768113 1.2091653
back 1.9289591 -0.5662176 -1.6584882 -1.0067624 -0.33828408 1.1352452 0.8051438 0.29100758 -1.112178 -0.10899671
meeting 1.1791114 -0.5089906 3.6243417 -0.83717525 -0.45919478 0.0316334 -1.2793528 0.77175266 -4.326931 -0.77887315
suicide 1.0586928 0.9492008 -3.4639966 2.1796863 -1.0507236 -6.903143 -3.8530886 0.9266046 -5.628552 -3.3215463
made -1.60272 -0.23975128 1.3580073 0.75854343 0.2498789 -0.24698581 3.130865 0.2735007 -1.8844814 -0.05219886
morning 1.1614637 -0.27537325 -2.0219839 1.7089986 -3.578252 2.4475217 0.38819784 3.5548697 -0.80023867 -0.92794764
action 0.82615024 2.1962206 2.496155 -0.6603343 2.4786654 1.4710037 1.0256028 -2.5476356 -1.1042974 3.4827228
down 3.6998456 -0.9789937 -0.09316268 -1.0300782 0.024530513 -1.7118284 2.444095 2.62003 -1.0715865 -2.1741872
commission -1.5916345 4.474881 2.3672144 -3.189978 -2.2064958 3.1459553 -1.0237541 -0.32994106 -2.74219 1.5372016
re 4.494102 -1.0975736 -3.9808326 0.35041437 0.8850819 4.715934 2.7436001 0.025646513 -1.0224171 2.2848024
pakistan -0.3831085 -0.26914102 0.22877601 -1.7936409 2.7469556 -2.797448 -2.555708 -1.2410558 -6.171294 2.153399
international 1.3932495 0.45171067 2.4910038 1.5465406 0.57226866 -2.209479 -1.3314096 -3.6531677 -2.587598 0.34235606
attack -1.5334785 -0.57566977 -1.1734929 1.2999129 -2.0544798 -4.509878 -0.70134753 0.144619 -2.7633162 -1.0556473
centre 1.4098929 4.5477476 -2.8469794 1.0408646 -0.35258713 -0.936508 -0.38026777 1.4504046 1.2974584 -1.7570844
afghan 1.8499897 0.77871025 -1.9484752 1.2781816 3.5335484 -4.6283607 -3.5426958 0.8303662 -3.7461224 2.724648
group 0.3390106 -0.24621564 0.4819058 -0.30295843 -0.6781465 -2.7597702 -1.5543422 -0.8531915 -1.9931997 0.8215329
city 4.0602646 2.304059 -1.4225764 -0.04339374 -0.27966553 -3.9251049 -1.9729122 1.8374465 -0.5436458 -2.4663885
well 0.7737634 -0.13431498 -2.636473 1.5401477 1.5798281 -0.89126056 4.707775 -0.7233992 -1.6113563 -2.5023615
through 1.084002 0.14226153 -1.7547971 1.0103614 -0.55259454 1.1126416 0.57422566 0.7267021 -0.4679913 -0.6868056
military 1.5058075 -0.48365596 -0.79240084 -0.15837452 3.1086042 -3.4727845 -3.0979385 -0.6209391 -5.575528 1.8462459
members -1.7752293 1.3810916 -1.7968796 0.16018915 -0.80349606 -2.5641122 -1.7048365 -0.9475469 -1.2500103 2.8541663
while 0.76966196 3.8435915 0.51276195 -0.4309468 -1.9787515 0.46848646 0.900091 0.26342463 1.765021 0.14001755
number 1.3293248 2.7730246 -4.7789865 2.806614 -0.031731237 -0.44874775 1.1318026 -0.98108953 1.1902806 -0.88290024
five 0.8997356 2.3091588 -2.4668293 -0.037972916 -2.647081 -0.058957644 0.31375012 4.0741386 1.1824847 0.22075905
called 2.257361 0.5441292 2.616431 -1.8301029 0.092359275 -0.631535 -1.024129 -1.5888191 -3.0114365 -0.34783056
local 2.5398817 0.21452114 -1.557889 -1.3208237 2.6699593 -0.8117623 -1.0093671 4.3604136 -2.1441855 2.5162737
area 3.7083995 0.96841425 -2.1016471 0.6851776 1.7051398 -2.6472409 0.7690314 2.2974355 0.90274304 -0.035916515
qantas -0.9533004 4.259185 -0.5960469 -1.5234815 0.9195451 2.8193424 0.8183041 -3.4078414 -1.3930383 5.144783
gaza 6.628103 3.4481976 -0.5787311 0.42930335 -1.2825283 -5.801936 -3.7797189 1.7408946 -2.4878902 -3.8691604
week -1.5195869 -2.7739453 1.6383841 3.5642896 -3.47091 -0.09155572 -0.12814367 3.3308907 -3.2106407 1.0842048
union -1.127783 3.5061765 1.5674086 -0.47623304 -0.16944781 -0.095505856 -1.151564 -4.9287 -1.771928 5.121422
national 0.27102226 3.928242 2.7742805 0.9969916 -0.13313319 0.8365159 -1.7917439 -2.312848 -1.5871036 -0.21831095
since 0.5418322 0.8564725 0.90582997 1.2782756 -0.87581944 -0.9605645 -1.6093262 2.094699 -1.5311993 -0.6585668
hours 1.5806198 0.24965206 -1.8562603 -1.7496191 -2.3176649 1.1792088 -0.41689858 2.9804187 -0.7240118 0.2409607
wales 1.9248512 8.2387705 1.1113566 1.9645735 -0.1929528 0.1996377 1.8792919 -1.9664274 -0.88421756 -4.670888
september -1.5494555 -0.1078596 -4.660107 2.2292254 -0.46773914 -1.3499112 -1.538262 0.71420383 -5.26186 -2.4832616
including 0.56576645 2.6297312 -0.58300847 0.55957323 -2.2813244 -2.3761592 -1.4779432 -1.156862 0.34597355 0.15251847
another 1.4268564 0.28305697 0.11140136 0.12747514 -3.107986 -2.2988896 0.9946559 1.3024977 0.78533465 -0.3473103
east 4.8323326 1.0542269 1.3673645 2.6044214 -0.10791813 0.4737422 -3.2473474 -0.67878515 -3.7072005 -4.0209103
report -2.9944658 2.4488928 0.54377174 2.0833893 -3.3775008 0.33750108 1.8767239 -1.1411239 -0.18404439 0.41084144
night 1.1465716 0.61915994 -0.37989226 1.5859851 -4.9541283 -2.1521063 -1.2939892 4.6553082 -0.51332784 -1.2327747
off 0.77191615 1.2601722 -0.022740265 0.48301506 -0.11445543 1.0299889 -0.09411459 2.302133 -0.6738188 -0.20524488
north 4.3720694 4.9600434 -0.36397895 0.41399312 -1.1469083 -1.7720971 -2.0700622 1.614809 0.7891515 -3.2829013
should 1.3548294 0.4583229 0.72358674 2.040205 2.7458143 1.3888955 1.6200365 -0.8205447 -0.21180308 4.1315036
six 0.054305136 0.24092792 -2.469069 0.6553434 -1.7509438 0.3938936 -0.63364863 3.892304 -0.90900284 0.2504432
staff 0.05380531 2.1970894 -1.6356884 -1.113227 -0.7325834 0.56774265 0.86167043 0.17848633 0.45748723 1.3316201
between 1.2828567 2.166479 0.052983955 0.061958876 1.425463 -1.8868039 -3.2531896 0.88449633 -1.4796841 0.34116784
these 1.1477002 0.28982782 -3.2219772 -1.9365808 1.8519673 1.4355562 3.0614812 -0.8777065 -1.1722647 2.143396
get 3.7958355 -2.2804878 -2.5428514 1.2528613 -0.4151291 1.8236712 3.570772 0.16028449 -0.6707982 0.78814983
second 0.2486123 2.6782172 0.5293857 1.7213879 -1.9015316 3.115345 -1.4428356 4.028433 -2.6342716 -1.32372
earlier 0.7541257 -0.6874677 1.3720865 -1.5956312 -2.235843 -3.4579172 -0.9007182 1.6749613 -2.864076 -0.047659297
war -0.24923062 -0.7087411 -0.19468531 1.8735547 1.4666977 -0.87146294 -1.5716572 -0.96549046 -4.570757 -0.7616693
go 1.0446271 0.25319368 -2.173586 1.1375389 -1.5157577 5.2121525 2.959755 -1.3176303 -1.015455 0.59794205
islamic 0.881174 -0.12870288 0.67071205 -1.2309653 -1.7141608 -7.052988 -2.1404982 -1.0682399 -4.256143 0.39596486
further 1.2006376 3.1855826 1.3664947 -0.4006891 2.0231998 1.8831453 1.0192267 -1.9029732 -0.097922616 1.4872518
defence -0.4508717 0.81581694 3.320644 -0.892644 0.3086414 -2.5418367 -0.70746446 -2.310632 -2.9463344 2.7296503
end -0.374185 -0.72520834 0.5676449 1.773383 -0.104904674 0.19389957 -1.043213 1.4533046 -2.9627824 -0.019534918
months -0.66825 0.045882322 -3.4581983 1.8857044 -1.856045 -0.14176229 -1.5675167 3.9670377 -1.6393008 0.74481815
do 1.1983509 -1.3288265 -0.41014937 -0.88531053 0.1891846 2.737901 3.712676 -1.8745652 -1.8683586 2.8772948
because 1.9849837 1.2678889 -1.2535108 -0.74478203 1.380097 -0.52791315 2.447022 -1.8353819 0.6793637 2.6701097
authority 1.3949603 -0.48363736 4.2164383 2.6200964 1.4092618 -2.2504933 0.86058384 -2.2846951 -2.1431797 1.3669536
foreign 0.47075266 2.895745 4.6583457 -0.65232337 2.024198 -2.8972223 -0.15546635 -2.438343 -3.8083124 -0.3396996
going 3.1990201 -0.05256235 -2.8571143 0.2779373 2.6317444 2.3457773 4.3052487 0.48484606 -1.1965084 1.034251
power 2.0620544 0.81395787 0.96703964 -1.0185394 -0.59870446 2.1919053 -1.8391299 -1.6456302 -1.4917278 1.6720507
work 1.2267561 1.1530035 -1.8376261 0.15327469 -0.28128418 2.325947 1.295881 -2.2737808 -0.7171145 0.46551946
areas 4.2003574 3.4550676 -1.6249658 -0.7449242 1.0686398 -3.0522118 0.45898366 -2.016253 1.5490807 -0.40052852
near 5.087099 3.4340208 -1.8811961 -0.2634783 0.8894078 -5.3365984 -1.1423498 3.6323197 -0.32028964 -1.2472647
team -0.825577 1.3007519 1.360779 2.5389476 -0.20293002 0.9393491 0.7482206 0.44391072 -0.8637434 -0.053419102
sharon 2.2452106 -1.4337512 4.3756876 -0.939949 -0.88633126 -2.6836793 -0.0020452966 -0.8489688 -6.967241 -2.8737795
during 0.84663343 1.5601194 1.6146569 1.8548837 -0.5827575 -2.2054071 -1.4089136 2.5244224 -1.5234847 -1.7153006
died 0.23128268 2.8981423 -1.6363626 -2.7212741 -5.0019774 -2.0595093 1.8210349 2.2424595 0.36844277 -2.167824
month -2.455105 -0.08812213 -1.9547617 1.7542816 -2.9386022 -0.4810021 -0.8781912 3.39592 -1.3104378 1.6165948
only 0.9098086 -0.5090867 0.30555797 1.9215198 0.49959794 1.6224673 2.1239808 0.30331573 -0.88884294 0.09651707
many 2.0321314 0.7877615 -4.118625 -0.98788255 0.1275112 -0.38665763 1.7286016 -1.0858324 0.13867414 0.6525503
india -2.2801087 0.5338132 -0.22098102 2.0332358 -1.3805039 -0.86543334 -0.83864146 -2.9631886 -3.2106254 0.9305425
way 0.15552014 -0.2071136 -1.325748 0.16214785 -0.05316366 2.0605862 2.8877006 0.16085003 -1.5619873 0.35555184
eight -1.0797257 3.0032358 -3.0141194 -0.6582025 -3.3735168 -1.2616596 -1.0267293 2.9476883 -0.084493265 -0.6022555
know 2.453265 -2.5913212 -2.0011444 -0.89293593 -1.407187 1.9943693 4.942943 -0.14856878 -0.8969479 4.155148
metres 3.7002702 -0.2983083 1.5556203 3.2246675 -4.5930634 0.89854115 0.38581398 5.103874 0.3223691 -0.045761254
match -0.5161952 1.8655031 0.033380296 4.1124754 -0.80455536 2.9499657 0.07219142 3.1507175 -2.403862 -0.9155742
good 0.71339744 1.1473451 -2.1065586 1.4962128 1.040074 3.9175265 4.711748 0.59633875 -1.1074518 -0.3001446
make 2.1989603 -1.0450528 0.049850438 0.50902075 0.81528485 2.7827797 3.062789 -2.0366051 -1.5827492 2.6163764
ve 2.1941893 -1.4024656 -4.669708 -0.59667337 -1.4175698 0.48000482 4.786295 0.42202687 0.35895917 3.175821
melbourne 1.1373724 1.8428164 -0.53964835 0.65010256 -1.5789669 4.186543 -0.12351521 1.8391173 -1.3203667 -0.78438133
northern 0.47480413 1.8462669 -0.22463286 1.8019681 -0.90667593 -2.9146447 -4.6697497 1.8904284 -1.9482714 0.8081733
spokesman -0.1336281 0.7315999 3.0837276 -0.7472669 -0.80738044 -2.6555831 0.089640506 -0.70414215 -1.7927154 -0.21852168
claims -1.5951928 0.71957916 0.26587418 -0.7435844 -0.7403646 0.6845847 1.1199324 -2.3244185 -1.6109302 2.3562999
former -1.3307775 0.35219148 2.3367882 -0.47032455 -1.4899695 -1.0514151 0.822185 0.40492582 -1.3762554 0.5848599
left -0.1216763 0.18666886 -1.3990008 -0.7642062 -2.8118048 -2.5182548 0.7918226 1.3141589 -0.5138809 -0.05941703
air 2.621146 0.8987677 -0.26914525 -0.16459462 -1.6979148 -3.150217 -3.4785714 0.74775445 -1.8729953 -0.9651066
most 1.0107514 0.73208773 -2.3155363 0.6177918 -0.11997716 -0.13410856 1.2791266 -0.6275159 0.41149405 0.08281503
support -0.17863281 0.4266736 -0.45685804 -0.69622475 0.80512905 -0.25880075 1.1670368 -3.336145 -2.0081596 1.4209706
osama -2.8742733 0.120291494 -4.8286004 -0.8992158 0.93126506 -2.692717 -0.007897977 0.20344111 -5.3647842 4.428222
peace 1.4615813 -1.4483813 1.5567904 -0.03322749 0.4616286 1.179449 -1.9797853 -0.4768424 -6.9189267 -0.9332134
like 1.7456006 -2.6729586 -1.1816113 1.3429502 -0.7828614 1.4537916 3.4537828 0.6476717 -2.142421 1.027709
authorities 1.4242784 2.5725815 0.60095507 -1.0799584 -0.24252613 -2.090439 1.0669092 -2.9800828 1.0947375 0.86058694
prime 0.76951885 2.982898 5.692961 0.080683835 0.70214874 0.6498241 1.4620447 -2.0935063 -4.793205 -3.6363192
given -0.6801863 1.5213095 0.04221483 -1.1733431 -0.08271801 0.2542461 1.0493866 0.46654004 -0.5897178 1.3972867
am 1.4367586 1.0638635 -1.6399542 0.22322734 0.19775891 3.3940892 2.0966384 4.38659 -1.9142991 -1.6526504
ago 0.22735544 -0.6997485 -2.1539292 -1.0414462 -3.2497616 0.36143017 0.49413228 4.7934933 -0.91723835 3.1726806
saying 0.53734964 -0.71977484 -0.2827262 0.038111646 0.8069335 -0.33927357 3.5919542 -1.0858086 -1.0969908 -0.038113903
set 0.38867 2.686923 0.23043624 1.6116191 0.9634452 1.1609088 -1.4770983 1.2798108 -1.6237245 -0.6065514
expected 1.080808 2.1437135 -0.758727 0.42345175 0.8083197 3.2708397 -0.68973964 -0.55748254 -0.87089795 1.7399698
tora 5.013455 -0.02631563 -5.5094833 -0.97719103 2.0763369 -1.7775604 -3.301354 4.0640326 -3.4312446 2.1255517
put 0.34725994 -0.101778075 0.33446053 0.66306734 0.65734786 2.0468068 0.5568103 -1.5521754 -2.1306963 1.422929
bora 4.3803368 -0.41513106 -5.9888377 -0.67962575 2.7120514 -1.4980496 -2.3070643 5.007215 -3.914851 1.8759438
looking 1.498485 0.7856464 -1.0229698 0.40979028 2.149897 3.831943 2.3253446 1.0300188 -1.9201714 0.05394003
come 1.7982993 -0.6887473 -1.6608634 -0.18984675 0.12024683 1.1208676 1.9437202 -1.1152072 -0.8409532 1.2213176
place 0.4319902 0.9266226 -0.39248765 0.09640178 -0.41163918 1.2448357 1.3665992 1.9480271 -0.33739498 0.075108625
militants 0.36534888 0.8087903 -0.49755087 -0.5963853 -0.7263242 -5.1652846 -1.0758064 -0.76328313 -2.1319785 -0.019090764
fighters -0.36305475 1.3989437 -3.6185017 -0.60063154 1.9238951 -5.217082 0.8076412 0.6932842 -0.7885775 3.3264918
several 1.2916483 1.8548207 -2.3218467 -1.2671299 -2.3580256 -1.951364 -0.8047924 0.21518566 -0.039003108 -0.22178291
children 1.5081395 1.2140491 -1.7534026 0.66241604 -1.6623842 -2.6466196 3.5130785 0.3084955 1.6597617 -1.2536212
meanwhile -0.018751265 1.1679406 0.8698795 0.78608465 -0.5628971 0.052511893 -0.7809131 -0.6732117 -0.8739982 1.0318358
injured 1.9106603 2.1077037 -2.369553 -0.9832977 -1.8098172 -5.4132557 1.4302436 2.315984 -0.08911651 -1.8376482
christmas -0.15814091 1.8700969 -0.75123256 0.8227054 -0.8248823 0.9607449 -1.1770571 1.0988107 -0.27401832 0.41689053
groups 0.964223 0.39179078 -0.683255 0.6123988 -0.087984316 -4.187547 -2.0342329 -1.7875164 -2.3420475 0.3300327
indian -0.68874764 2.10069 1.1344655 0.21913351 -0.8575369 -1.6470731 -3.011931 -1.6379039 -2.5414996 0.46176764
found -1.5631728 2.473003 -1.6677964 0.27622843 -0.72554797 -1.8006929 -0.079207055 2.9915187 0.08364742 0.4310376
unions -0.11406928 3.729743 -0.7101753 -1.6003164 0.4370285 0.7225531 0.81390685 -2.6984017 -0.14901997 4.4803185
arrested -1.8675865 0.9582488 -0.033869028 -1.5241624 -3.0280783 -4.333196 0.53148293 1.015293 -1.1393186 1.32829
royal 0.29334375 4.7793155 1.633879 -2.222989 -1.8549416 1.3382974 -0.9248208 -1.1248705 -0.29161465 1.1016152
river 3.122076 0.2025178 -1.4411759 -0.040726725 -1.6574988 -1.5660726 2.363649 3.0155318 -0.26910385 -2.2220716
troops 1.6075732 2.2469072 -0.45836973 0.29027432 1.6727227 -2.3367572 -3.2487166 -0.7665316 -1.5792372 1.1728649
child -0.65407157 1.7743633 1.4915202 0.1591645 -1.1612617 -0.69353217 1.7636826 0.29039255 -0.0785743 -0.15102358
africa 3.7037466 4.185848 -0.53643453 2.0487535 1.7938622 6.243523 1.9498806 0.46842194 -2.8084822 -4.6713543
talks 1.595366 0.5046527 1.5650115 -1.1562706 0.2672116 0.121994525 -3.8356507 0.23379903 -4.80692 0.66053313
official 1.5995622 -0.34009236 3.1917472 0.8780423 0.85747045 -3.5331151 0.7619888 -1.4073777 -2.4242077 0.6240325
whether 0.20638871 -0.6255657 -0.5845899 -0.4619584 0.57489187 0.8306558 3.0981953 -1.5753973 -0.8263191 3.4696443
interim -0.15819423 0.81081426 2.1459942 2.5444787 1.5857134 -0.33617914 -3.165106 -1.3017604 -4.393457 1.9518125
reports -0.847422 -0.0624794 -2.004047 0.3665156 -0.012033043 -2.8529649 1.9724998 -0.26696473 -0.5870066 1.1552063
then 2.3057535 -0.7903561 0.9457258 0.161468 -1.5659454 0.75478935 1.0453432 1.0623051 -0.82592 -0.9786441
hospital 1.6650527 0.6962089 -0.38815984 -1.847335 -2.544047 -2.3223689 1.1856252 2.2556307 0.0028633762 -1.0825272
terrorist -2.1485987 0.20428734 -3.3615003 1.0755498 -0.32226664 -2.5243862 -1.753737 -0.61069775 -4.152143 2.1255462
yasser 1.6328155 -0.5510597 4.5288796 -0.029897856 -0.097751826 -3.1077754 -0.76427567 0.2616968 -6.4891396 -0.18155797
part 1.2096908 1.3039049 0.62998897 0.5971296 0.15590209 0.014755754 -1.7028049 0.21749574 -1.2369635 -0.21985841
industrial 0.5630615 4.631771 1.9735179 -1.5386589 0.13620655 3.7112286 -0.4098184 -0.8970502 -2.194416 2.336838
don 1.9308845 -1.3971447 -0.73617697 -0.97135544 0.8643244 2.9722526 4.519803 0.6509108 -2.003132 2.5615468
start -0.6094731 0.7144855 -0.06911575 1.7531745 -0.98542905 3.5287452 0.92502254 0.6300772 -1.880093 0.1030523
how -0.084556796 -2.0639691 -1.8811727 0.043062564 -1.6699641 0.17112276 3.2575305 -1.5336695 -1.367728 2.526519
statement 0.40990776 -1.9340215 1.699369 -0.54714274 -1.1005324 -1.614569 0.34058324 0.79169255 -3.186165 0.2721686
leaders 0.48499227 0.38497752 -1.0704994 -0.8781975 1.8148392 -2.1751573 -0.68687326 -0.041209687 -1.5768542 1.9166001
third -1.3868887 3.243883 1.1762534 3.183716 -2.5416775 1.5698248 -0.5971987 3.2080603 -2.2603834 -1.9571872
early 0.9659491 0.7993593 1.2868856 -0.770069 -1.2251571 1.139011 0.89511734 2.8088427 -1.7450126 -0.6664884
senior 0.2242656 0.6629822 -1.1307126 -0.247326 0.9780082 -3.5817044 -0.2119011 -0.84688526 -1.034611 2.0806227
terrorism -0.2560047 -0.7265397 0.7021161 1.2438703 2.2716417 -0.6314802 0.1936862 -1.0808518 -4.535685 -0.38983178
economy -0.88496953 1.1493998 -0.59392697 3.1880007 1.0316998 -0.17311336 -0.43243906 -1.2862978 -1.7931238 -0.009827865
mountains 3.3489456 1.4313333 -4.111846 0.062368788 1.506381 -0.1683209 -1.3192675 0.3904435 -0.56471086 0.22837512
weather 2.5040772 2.4719152 -1.8748777 -0.5310756 -0.7628886 3.1260247 2.46934 -0.22439678 1.0296324 0.07452025
hit 2.131992 1.095489 -0.4724766 0.50360334 -0.629508 -1.107554 1.5536047 1.1373912 0.20258155 -2.1347506
million -1.1666707 2.4758608 -2.2816658 -1.1907005 -1.8566341 0.20471638 0.1071903 0.44475842 -0.063467935 1.3206083
believe 1.9918553 -1.4715742 -1.3107133 0.7059056 0.8260876 -0.19358769 3.6998014 -0.37706152 -0.23698527 2.3721304
trying 2.3214002 -0.29042965 0.03225084 -0.81106657 1.8967193 -1.8843261 -0.2968897 -2.018911 -1.6376407 1.9416176
family -0.98961294 0.4144183 -0.25383008 0.42939758 -1.6331136 -0.9186923 2.2990003 1.2872286 -0.07413969 0.6003388
both 0.91057014 1.5364999 0.92466307 -0.06440905 -0.30256182 0.017080601 0.25145778 0.18885325 -0.67314696 -0.88245624
john -1.1423776 0.42441973 3.5487933 -0.11351435 -1.8027313 -0.035702817 2.2854002 -1.4095575 -1.9959755 0.03975583
army 1.9754947 -0.29697633 1.6818944 0.23192918 -0.14826131 -3.541705 -0.5496262 0.7108001 -2.7050622 -0.71695447
pay -0.096532956 1.2487034 -0.28479522 0.5626736 -0.8895429 2.098086 2.9511418 1.1585351 0.3850928 3.7612553
court -1.1047106 -0.16039988 -1.0469282 -0.48681226 -2.3600538 -0.7387916 2.056499 0.8727906 -0.9346436 -0.2706003
radio -1.3405745 -0.46390203 0.7135694 1.2037802 0.68324775 -2.6135354 0.31721732 1.9918789 -4.195964 -1.7815515
public -1.126518 1.3051275 0.275058 -0.21951061 -0.2740212 0.6938003 0.93638295 -1.8519413 -2.0650861 -0.345497
dr 0.038541004 0.61255705 4.511668 -2.042411 -0.32410172 -1.0798602 4.376646 -1.0496228 -2.3172145 0.72989184
asked 0.5930093 -1.022203 -0.052472737 -1.542493 -1.3323048 -0.41932485 3.8983665 -0.015032071 -1.1999812 1.4676182
control 2.998754 -0.13327059 1.276012 0.057040192 0.22242899 -1.3616496 0.020021234 1.2510169 0.0024718412 1.1032351
lead 1.1482943 1.104094 -0.22268128 2.5220957 -0.891504 2.206034 -1.2861464 -0.116144 -1.4393245 -0.08510452
pressure 1.4656835 -0.42622742 1.0137311 -0.50761235 -1.1894962 1.3900044 -0.5747231 -2.3972151 -2.5733767 -0.24148622
best 0.047371153 0.25901428 -0.21910663 2.459003 0.023283692 2.4664884 2.5941045 0.9403422 -0.9335337 -0.13974631
long -0.44566378 0.01172797 -0.76359993 -0.6511218 0.8816475 0.44218943 1.8332527 1.2145219 -1.4801424 0.22202517
adelaide -0.5560014 2.0030885 -1.7997663 0.9491052 -2.2852533 1.1327777 -2.1374557 2.1356382 -1.9846205 -0.35266212
chief -1.5369515 0.042098355 4.0384345 0.34813395 -2.6523533 -0.96335995 0.67168283 0.36444142 -1.6208261 0.77838343
following 0.49196145 1.5660673 0.46994352 0.7915054 -0.20280796 -0.69819754 -1.1313314 0.7318227 -0.7880192 0.27954403
however 1.162483 0.58452886 1.1803144 -0.13596043 0.50081056 -1.2659816 0.42053396 -0.94448465 -0.8332348 -0.32937115
agreement -0.8936467 1.4731246 0.41187736 0.73002213 0.6915582 0.42558622 -1.6384389 0.59719974 -1.8295072 2.4345515
help 1.9114283 0.94941574 -0.35734138 0.9456929 0.108134165 2.8373117 -0.8396181 -2.6232338 -1.5796491 1.0407573
few 0.92023706 -0.14392254 -3.2640717 -1.2769005 -0.46181008 0.63789713 0.5678816 3.9871063 -0.1861449 2.2527509
house 1.7389648 -0.82522523 0.4483347 0.5626841 0.14667715 -0.32583386 -0.4459745 0.069540896 -1.9290428 -0.5420677
play 1.1425099 -1.2859398 -0.07462072 2.4975166 -0.5817747 3.590028 2.1813622 -0.5053365 -2.713512 0.3540883
labor -0.8116674 -0.061047874 1.5116299 0.55882573 0.07818994 1.4094319 1.2636992 -2.8556721 -3.1550875 0.33889744
australians 0.8549914 2.3741066 -2.8846285 -0.0915641 -1.3743012 -0.8995751 1.9883237 0.78125405 1.1671807 0.2261817
arrest 0.65006524 0.19174801 0.7424258 -0.49722713 -0.6047745 -2.2451446 -0.71741676 -0.7217763 -1.8345162 -0.0427601
better -0.7986386 1.3643771 -1.1691339 -0.23300259 -0.7237681 1.7506167 4.3047256 -1.5632458 -0.5279366 -0.21015894
want 2.570257 -1.7674037 0.10665628 -0.3263041 -0.17273 1.9846714 4.15349 -1.9415785 -1.3018355 3.3254805
does 1.3518068 -0.012991511 1.6764065 -0.48082268 -0.4877161 0.95940167 3.661491 -2.6433501 -0.5584271 3.9245422
firefighters 1.7655313 5.15157 -3.45599 -0.7790252 0.1851851 0.009854812 0.4445895 -0.7725627 0.2733959 -1.2924919
high 1.8286036 2.4511395 -0.72913545 -0.026491785 0.72174853 1.5805702 0.34461883 -1.1636524 0.39981994 0.63910544
need 2.0377483 -0.30676627 -0.56465584 1.7662673 0.42788312 2.6690755 2.5486252 -3.0029523 -1.1887113 1.0421098
close 0.9133519 -0.15240513 -1.0390124 0.2617916 -0.38003552 -1.0199816 -0.07305975 1.5509443 -0.23385566 0.9784341
service 2.0616155 3.5788064 1.7257875 1.0014058 -0.69320667 -0.0029560018 1.520298 -2.2006931 1.4415053 -0.23230645
community 0.22573091 1.0257056 -0.020078976 0.298512 -0.14346357 1.3380438 -0.21345173 -2.5029247 -1.5471573 1.9017884
taken 0.4794538 -0.22175218 -1.6704266 -0.018344786 1.8596802 -1.6146924 0.56384295 1.1745236 -1.7821949 0.28386775
confirmed -0.24469663 1.493047 0.9630305 -1.8220768 -1.1269016 -2.8061686 0.120169625 -0.8396818 -0.411616 1.8931653
queensland 0.98448354 3.421889 1.5430609 -0.70136756 -2.342858 1.1134477 0.8803733 1.1025485 -0.2075646 -2.682819
services 0.5479185 3.3252015 -0.30964896 -0.3864699 0.21230556 0.4069037 0.7434586 -2.823674 0.52221966 0.76545197
overnight 1.3788698 4.660203 -1.0268784 -0.5000069 -2.3143678 -1.2066196 0.22361287 0.6235661 1.7682811 -1.1022557
process 1.5439672 -0.70624214 0.47702333 1.4172505 0.77574986 1.9350004 0.27763918 -2.8141942 -3.1149411 0.2342454
opposition -0.44038987 -0.15343153 0.32670686 -0.91083825 1.2078944 -2.6190746 -0.1745861 -1.5000858 -2.975241 1.6157761
williams -1.0068111 -0.71811306 3.257611 -0.27682546 -2.4189906 0.06997053 1.1988958 -0.38541508 -2.4844284 1.2935151
must 0.6356423 -0.96261764 0.25369713 0.7950721 1.366989 0.646688 0.95626444 -1.48767 -1.7116369 2.4349227
secretary -0.12558378 1.9475391 3.0726728 -1.4085193 -0.66150165 -1.5971227 -2.2760916 -3.2141345 -3.459447 1.4773984
information -1.3735809 0.49252275 -1.6307486 -0.14000358 -2.2010727 0.72818524 0.6107782 -1.1638193 -0.7856052 3.017466
believed 0.07212489 0.061746266 -3.7515974 -0.90543634 1.0123765 -1.9846088 2.1766567 0.9515539 -0.6972218 2.8094573
came 1.8440713 -1.306043 0.06122597 1.0632858 -0.24394946 -1.4193648 0.038986474 1.4280537 -2.1216776 -1.523078
detainees 1.0309263 2.6976764 -1.0792252 -0.6679353 -0.6445773 -0.7524254 1.0709467 -0.5073157 1.4457161 0.644499
won 1.8843286 2.0263083 1.2749444 2.8769379 -2.9269345 1.3841999 0.13961647 2.1245139 1.0416117 0.28193176
governor 1.6180379 -0.37130257 4.240811 -1.5989761 -1.3478384 0.3322842 2.7432122 -1.5688416 -2.5998592 0.60154474
held 0.099167846 0.60655415 -0.4997783 0.0053774253 0.5941762 -0.7117307 -1.0123265 1.4536873 -1.6489872 1.5305818
shot 1.3778996 -0.6129497 -0.5196495 -0.8615282 -1.4646629 -4.74306 1.3098874 1.432009 -0.55092764 -0.14998625
damage 2.173909 2.1086574 -0.45776352 0.33469203 0.22432838 0.8155799 0.48950776 -1.170805 0.3974493 -0.65176755
possible 0.34303373 1.6445234 1.9704226 -0.3068564 -0.034961957 1.273184 0.57231617 -1.0756513 -1.3401829 0.9723423
her 0.3621596 -1.0747234 0.02246014 1.2547941 -1.412894 1.791562 2.7795012 2.5545046 -2.790607 -1.8579742
hicks -1.886543 -0.77466524 1.8144846 -2.4404492 -2.4791179 -1.1786572 0.74045074 -0.53797716 -2.8261404 3.9268107
nations 2.4277139 -0.30980143 -3.449063 -3.1057413 -1.6410625 1.2074114 -3.5018523 -3.345775 -5.2040625 -1.6297331
much -0.27660874 0.2890415 -0.8120673 -0.9449141 -1.6431203 2.9362218 3.8508842 -1.7187765 -1.5437177 1.5899123
pentagon -0.5368462 0.39175782 -1.6403576 -0.43429065 0.5820734 -2.313972 0.12304453 1.0536134 -1.1437457 1.459218
peter 0.0074594268 1.6417086 4.4144497 -0.12357001 -1.6598233 0.027749488 2.7935266 -0.73144555 -1.475999 -0.36500356
party 0.3653918 0.32545257 1.4030522 0.16927059 1.3051898 0.62859416 0.98409903 -0.68179315 -2.3994539 -0.32122758
did 1.03117 -0.44785514 0.77438664 -0.79853386 -0.21144962 -0.43428364 3.2822666 -1.5051717 0.039343853 2.5033429
released -1.292027 0.69996035 1.5001527 -0.4074005 -1.5472665 -0.122137405 0.61664426 1.2217665 -1.6161819 1.0646503
win 0.56244713 -0.6173672 -0.12223 2.2969344 -0.5898243 3.1169646 1.953544 0.48174274 -2.190589 -0.4754522
maintenance -0.42996287 4.9136586 -0.1119909 -1.7569532 -0.10250374 0.6778425 -0.54448056 -1.5232233 -0.8030246 4.661056
took 1.9358475 0.60278213 -0.63141936 2.1651886 -2.017312 0.7677066 0.32898772 2.2238822 -0.09209013 -0.78026754
brought 2.3457396 0.95098716 -1.0395333 0.95057666 -1.0941696 -0.94462913 -0.31379035 -0.47259927 0.1391427 -0.53101975
british 0.39019495 1.3026438 -0.10318077 -0.4802016 -0.0054873982 -1.7296034 -1.5996412 -0.8600598 -1.1912961 1.6202695
accused -1.1209291 0.20703577 -0.047587138 -0.61483693 0.2630676 -3.5687106 -0.678275 -1.7202567 -3.8818452 0.9286012
safety 1.2169065 2.633962 0.51283634 1.1487998 -1.5093004 0.093585394 -0.04310827 -1.7926304 1.2294327 1.5499885
armed 1.9342536 0.11544137 -0.4077468 0.10248954 0.8695666 -2.6499152 -1.5964459 -0.68807185 -2.6453018 -0.08976431
kandahar 2.7038543 0.29271042 -1.1558025 -1.0242306 1.3233385 -3.2198834 -0.544432 3.0998635 -0.34504634 1.3176807
winds 2.912561 2.1642435 -1.3514307 0.53667307 0.32403424 2.542278 0.45312026 1.1616198 -0.17066386 -0.57206315
despite -0.46248856 1.9238131 0.23804216 0.50003153 -0.8652569 1.2760415 -0.33716574 0.056767166 -0.918593 0.99959445
even 0.18852377 0.47890615 -0.9112332 0.7472932 1.5477096 1.2081736 1.5670274 1.7762088 -1.7296349 0.3194788
such 0.57851374 0.66401654 -1.9222697 0.9745767 0.7523122 -0.9032061 2.8563182 -2.2833047 -0.39139614 -0.97528714
across 1.8384477 3.0133197 -1.8697938 1.5012592 -0.5216748 -1.0535414 -1.5028427 -0.35376438 0.018659318 -1.2134413
eastern 1.3680578 0.93922704 -2.6239057 0.4296502 1.9377279 -1.5171906 -1.8607739 3.3310277 -2.7771926 0.9977339
violence 0.5488647 0.25311273 0.242431 0.31266475 0.27425987 -2.4948876 -0.84025395 -0.0949518 -2.3106105 -1.1576197
weekend 1.017358 0.09374284 -1.5177679 0.2844949 -0.9868167 -0.28387883 -1.994887 0.31221008 -1.492769 0.6734436
return 1.5986961 -1.8586432 1.4569434 0.8816041 -1.6503954 2.610175 -0.12636788 0.6097578 -3.9082074 -0.34869716
conditions 2.3431559 2.9177232 -1.2708299 -0.13091728 -0.6336359 1.312571 1.6352686 -0.60500723 1.561227 0.08119231
without 0.8471506 0.9921558 0.07798156 -0.22948508 0.2642489 1.5683478 0.8048421 -0.12702535 -0.5676752 1.1479796
building 0.10928803 1.001508 -0.57777166 -1.3582778 -0.54212713 -1.2423552 -0.4325096 1.2300776 -0.9235524 0.19304687
lot 1.3906007 0.20361122 -2.088622 0.07179765 -0.37706414 1.2890031 2.4171212 -1.0804747 -0.14915226 1.2980164
asylum 3.3131258 1.7749916 -1.0268847 0.00791049 0.7383658 2.2798326 -1.0584443 -1.9226189 -1.0715935 0.08688362
dead 0.8902543 0.97578067 -1.4324847 -1.0051442 -2.6527228 -4.9560995 0.6350995 1.4980611 -0.035630047 -0.040151376
cut -0.2720461 2.059713 2.4958854 1.4125609 -0.2391073 -0.12812948 0.70845515 -0.92231214 -0.8334755 0.26883972
york 0.0034451587 2.5164719 -2.7288742 4.2763066 -0.37748364 -3.3302293 0.7215582 0.2768876 -1.202003 -3.5493727
change 2.905677 1.0818231 0.27807894 0.46896693 0.6421381 1.4030935 2.286299 -1.9781651 -0.29559553 0.35083768
hill -1.0693414 1.5194088 1.4115896 -0.51424617 -0.7866738 -0.3146116 0.51000184 -1.9919065 -1.4223611 1.1619145
director -0.97048587 2.3081846 1.750472 0.1276786 -2.707417 -0.37218174 1.5103004 0.04386603 0.13100924 -0.6184057
council -0.09320306 2.1138136 1.6224595 1.0909086 -0.91624117 -0.30904534 -2.0898585 -1.2749515 -1.3000543 1.4682145
airline -1.478372 3.0546205 0.69616616 1.3526303 -0.034641966 1.0735874 0.040798508 -1.3209232 -1.2124575 1.8176318
got 1.5917034 0.68987465 -2.34806 -1.5145677 -1.5023259 2.2920396 2.8380477 0.99838334 -0.17095242 0.64508456
far 1.3848166 2.110429 -1.7254074 0.8560699 0.92084926 0.027835483 2.7152762 -1.5891954 0.3372184 -0.87455606
news -0.16664194 -0.17935127 0.71159095 0.17649426 -0.07432616 -4.075074 0.3550511 0.8679685 -1.5033467 0.53326
lee -1.2836887 2.5471284 1.4198588 1.0549171 -2.3638363 1.3082111 -0.07880739 3.634303 -1.805449 -0.6518563
waugh -2.3212337 2.665391 1.0349255 4.294072 -2.893567 3.009806 -0.5288367 0.7534767 -3.238512 -1.0383976
trade -0.48001722 2.2685044 -2.006189 2.7122042 0.42280346 -1.0999155 1.1503254 -1.3991575 -0.79219097 -1.3221239
southern 2.2576544 3.0660124 -2.4712064 0.4961381 0.9994376 -1.2910916 -2.8382077 2.1580377 -1.2614788 -0.67621785
crew 0.7216115 1.2062598 -2.381349 -0.21147162 -0.34732276 -2.3610065 -1.81536 1.2523377 -1.0224974 0.38527375
continuing -0.06240576 2.0461016 -1.6981206 -1.5496919 0.2429089 -0.6542038 -0.33382034 -1.8434666 -1.1225634 0.75023615
monday 0.9326239 0.18685271 1.0435855 -0.47216088 -1.9313128 0.2025959 -1.1072369 1.7066249 -1.5241833 -0.4782904
captured 0.20383751 1.4383734 -1.7392633 -0.89879465 1.2397501 -3.547509 -0.1096647 1.5469007 -0.84486985 3.7636151
fires 2.056031 4.652458 -1.8165058 -0.29488945 -1.2094069 -0.5642761 0.71195114 -0.42517912 1.2068479 -0.55608255
see 1.5305766 -0.73517483 -0.34923822 1.1414624 -0.02396867 1.8807836 2.588411 -1.5931101 -0.74247617 1.6746253
race 0.8853148 3.6563768 -1.490315 1.541386 -2.2376149 2.3090622 -0.6583329 2.725166 0.20205973 -0.01616374
economic -0.13873245 2.7283165 -0.013025384 2.5842826 1.2389597 1.4615828 0.9937359 -2.7944736 -1.2646961 -0.061881203
strong 0.7588168 0.8423042 -1.0403666 0.67709357 1.000229 1.6503458 1.4364121 -1.7461939 -0.7987248 0.4448341
call 0.6736028 -0.59463656 -0.027676895 1.4290451 1.0771834 -1.1042562 0.13639948 -1.2819201 -3.0762105 -1.261418
anti 0.26030493 1.6074357 -1.2243804 0.52317786 2.42192 -2.6531599 -1.205715 0.37774712 -2.3458395 1.2063643
emergency 0.5504179 3.7862184 2.6689599 0.50223196 0.009813437 -1.4219431 -0.19509208 -1.6537616 -0.9487289 -1.221509
cricket -0.4307426 2.1923862 -0.4655874 2.8272643 -0.69615394 1.6393411 0.22585821 2.1254687 -1.303504 -0.7577063
region 1.631454 -0.37580723 -1.66849 0.32355434 0.41207108 -0.12504897 -1.3236117 1.6238875 -2.1203196 1.5411159
aircraft 2.0039594 2.153777 -0.52488565 -0.0072686104 -0.980788 -1.0924627 0.059321113 0.30666295 0.96458036 -0.4204968
palestinians 1.3938345 0.856467 0.20271116 -0.47149152 -1.4471649 -3.1288934 -0.8470853 0.6284911 -1.9782691 -1.9433806
men 1.5787523 0.22677873 -1.6565665 -0.18970786 -1.4190712 -2.0536609 0.12186264 1.5595396 0.28331375 0.91408545
home -0.3547566 -0.11779011 -0.06639335 0.3593041 -0.6431572 -1.2585535 0.3983274 0.3513851 -1.4976528 -0.35211042
training 0.619769 -1.287885 -2.1662521 -0.79793805 -2.6835275 -0.6645716 1.2564719 1.0103883 -1.1699146 1.6766442
seekers 3.199438 2.2422311 -0.89990366 -1.4476357 0.44142687 1.9106314 -0.44057003 -2.0878987 -0.84293133 -0.22634868
working 1.6899673 0.57829285 -1.7109998 0.24877782 1.6974283 0.24380147 2.2361522 -1.0726942 -1.2063305 -1.4874189
strip 3.8454769 2.4619353 -0.23301166 1.5625346 -1.0425911 -4.564199 -2.7133164 0.88301134 -1.6590879 -1.571048
country 1.0942425 2.2338588 -0.92633927 0.12867334 -0.07123968 0.73085344 -1.6731827 -0.5496821 -0.550182 -0.11315497
american 0.33669472 0.17790702 -0.60773003 0.32444122 -0.49532783 -0.9115107 -0.68046147 0.57722294 -0.8662299 0.78063065
david -2.135095 1.4169545 3.1762366 -0.4586695 -1.2818298 -1.2745172 0.44608566 -0.45708454 -1.7347682 3.1900108
board -0.9062629 0.44386736 -0.5404514 0.31417942 -0.9571867 0.6917705 0.5025342 0.7539911 -1.8609283 0.56518745
role 0.894836 -0.22623079 0.6011394 1.5119696 0.11734341 1.2979876 0.83085465 -1.6507599 -2.4114919 -0.7076741
here 1.6795866 -1.0957564 -1.5643048 -1.0711311 0.5127666 0.1045059 2.9907928 0.599549 -0.67894244 2.221429
december -0.051198997 -0.59882724 -0.03536864 0.86064076 -1.6266531 -0.24071237 -1.6497099 1.179033 -3.097068 0.41326863
too 0.9296755 -0.6557518 -0.6011809 -0.9016437 -1.0212477 1.1440141 2.6387684 -1.0492601 -1.1697571 0.4812472
fighting -1.2537131 -0.21021563 -1.2355939 -0.7645517 -0.46069634 -3.9174027 -1.2964876 1.5341281 -1.8883476 4.4378824
plans -0.48112562 0.76271445 0.29862192 0.5079082 -0.47207266 1.6186963 0.6795277 -0.36944792 -1.209269 1.2525935
industry 0.029999075 2.4293437 0.2390295 -1.1929929 -0.36457938 1.5967447 0.03049091 -1.3412137 -0.99052095 1.595731
george 1.2191598 -1.5243673 1.2000138 -0.05783916 -0.76224846 -1.1216122 1.1147866 0.89960146 -2.8515737 -0.7313546
charged -0.45609877 0.6911999 -0.8992027 0.85008144 -0.61384785 -1.8401151 -0.19837755 0.89699525 -1.3461238 -0.03144927
act 1.1430566 1.56694 0.047420997 0.8928735 0.7461667 -0.19613752 1.0969495 -1.7840573 -0.1018871 0.5222595
health -0.4932147 4.1033897 -0.42866704 1.1381093 -0.57805896 -0.095973164 0.26034373 -1.836823 0.8995371 0.8410905
bush 0.6130567 -1.8363476 0.89924884 -0.29125145 0.94240767 -0.58342034 0.48841542 -0.63162655 -4.5399427 0.4448199
received -0.24397498 0.21202418 -1.3300186 -1.6470466 -0.98216504 -0.55045474 1.6639733 -0.020666495 -0.82353514 0.9772724
key 1.4230498 1.1928709 1.5144094 1.2516242 0.7633068 -1.0018803 -0.7549549 -1.4634701 -0.24472897 2.064087
alliance 0.14798892 0.90976506 1.1893955 -0.33787385 0.07967493 -2.3119516 -3.8320014 0.8218949 -2.8014734 2.1730046
rate -0.23924811 2.8173537 2.0772884 1.8920915 -0.157658 1.4166356 1.4204417 0.24651627 0.35452977 1.0828218
past 0.035076078 2.732295 -1.562639 -1.1051102 -1.4675338 -1.1068435 -1.3051596 3.15542 -0.19770701 0.44391906
administration -0.47520062 -0.1879457 1.049477 0.55802184 1.0610504 -0.30412513 -1.2828894 -0.34056386 -4.8957076 -0.5384785
bureau -0.23293509 4.7390103 1.13022 0.6389457 -1.9245845 1.4451609 0.79805714 -0.63219947 0.687788 0.062734246
used 0.42433283 0.850001 -0.62983173 0.64297694 -0.021983996 -2.1401308 0.37745863 -0.4336901 -0.24712738 0.02065333
head 0.22620732 2.0562606 0.65657556 1.4464041 -0.2561462 -0.49824208 -0.8084794 -1.1537538 -0.634088 0.11241517
offer -0.33256897 1.2232398 0.3232243 0.2536094 1.337946 0.75845426 1.3698679 -2.2112646 -0.86392415 2.7799177
water 3.3098142 -0.107431926 0.75619775 1.633759 -0.63893676 -1.8868692 2.1999013 1.672964 0.3501744 -0.49782526
zinni 2.0786314 -1.7993144 2.8317802 -1.1454349 -1.4913123 -0.624449 -0.41415375 -0.21549271 -5.303782 -0.4064287
town 2.928918 1.3859556 0.2691591 0.1510785 -0.8329046 -3.3817487 -1.8646102 0.9238147 -1.498228 -1.5826457
within 1.2797707 2.1846533 0.27718726 0.4876431 0.71774703 -0.36770943 0.8192169 0.7392723 0.68676347 0.93838555
boat 0.87419564 1.7849475 -1.3481334 -0.52225626 -1.240421 -0.9797815 0.5398929 0.1936126 0.22194941 -1.0657868
decision 0.5948275 -0.69173986 1.5856589 0.98347306 0.0666837 0.16572766 0.050178923 -1.787138 -1.7706525 1.8924834
zealand -2.0806487 3.2684958 1.1474245 3.6717608 -1.5690235 -0.9057508 2.227487 0.85329235 -1.6280189 -2.9074852
least 2.0774524 1.288158 -1.120156 -1.301992 -1.8651807 -1.0593643 0.67345226 1.5573293 0.09380828 -0.98860425
israelis 0.9290412 0.28208485 -0.74661267 0.006080966 -1.8551594 -4.034424 -1.271323 0.057454966 -2.4079127 -1.5755422
strikes 2.3146296 1.569178 0.009459377 -0.9065307 -0.17143585 -3.287494 -1.8683127 0.7683782 -2.0376318 -1.5533174
britain 0.024886081 0.9236929 -1.7880808 2.0602124 -0.43595636 -0.06542101 -1.5435952 -1.9150009 -2.4153755 0.07226124
line 1.3218122 2.3229904 -0.9416602 0.66013724 -0.76446897 1.9784414 -0.3926556 2.26874 -0.6957722 -0.21366353
department -0.68975425 2.5699394 1.313858 -0.43774855 -0.36877573 -1.6900885 0.6947161 -1.9925748 -0.6643488 -0.7293048
soldiers 2.4050107 0.67546344 -2.02686 -0.17989624 -0.55563486 -4.0692477 -0.6398687 -0.03079901 -0.31988037 0.5244426
hih -1.4248437 2.4047458 1.9765788 -1.1585915 -2.3871796 0.4528153 1.0694621 -0.4912105 -1.1057085 1.1880262
station 1.2204716 0.5961875 -0.04584148 0.84619635 -2.0570595 -2.88089 -2.9558473 1.4930949 -2.1946168 -0.050010428
issue 1.0784137 -1.1418523 -0.23012292 -0.56538653 -0.37076396 0.3485399 0.92800003 -1.4691342 -1.6548619 1.9131004
downer -0.7289677 1.558989 2.9833837 -1.8392705 -0.5192557 -0.6934782 2.699802 -3.0500524 -3.0476441 1.4983251
leading -0.2440067 1.2610624 -1.732361 0.57338256 0.29112858 -0.74031705 -1.7656155 0.429417 -1.4903679 0.11413841
use 2.7899835 0.6964832 -0.12909685 0.77807844 0.229377 2.3281147 0.7047954 -1.0744396 0.029741261 2.1694005
major 1.8089497 1.4079524 0.1971297 0.18984321 0.47476873 0.44826874 0.25891548 -0.6418043 -0.72639954 -0.9899599
person -0.6100763 -0.33538824 -0.04150471 -1.0179148 -0.95618683 -0.8964536 1.5704162 0.3353837 -0.7758803 0.5828676
operations 2.8804414 0.86678 -1.3120937 0.87013876 1.5244517 -2.0507534 -0.957597 -0.23001084 -1.2645603 -1.176742
hundreds 0.7923931 3.0026116 -1.818703 -0.13267744 -0.39793667 -2.511636 -0.063584 -0.17853156 0.15046158 -0.31718835
stop 1.7739699 0.6902151 -0.6075381 -0.114458404 -0.15673222 -0.1749483 -0.5743173 -0.9309697 -0.24108365 0.32297912
final 0.11856036 1.6746725 -0.53383297 1.348534 -0.45926467 2.0765936 -0.21997555 1.655393 -2.0213978 -1.207959
parliament -1.0150536 1.7258972 0.2153791 1.3916138 -1.1333466 -0.18836112 -1.6139649 -0.8911785 -2.6380475 -0.5450833
known 0.6584053 -0.5258661 -1.1875688 -0.32445756 -0.09159373 -1.0765462 2.86057 0.17723382 -0.99732214 0.39881334
captain -0.6349852 1.9880021 2.8344867 3.3180451 -2.669008 1.6387981 0.810488 0.039895352 -2.0313573 -0.7673852
legal 0.73640126 -0.079618946 0.44434768 -1.3566265 -0.22223362 1.9794664 2.4964595 0.79063356 -0.98659706 3.159414
large 1.7498611 1.8975741 -1.9802139 -0.90846324 -0.21149656 0.2364039 0.6915293 -0.5153366 0.39261568 -0.295205
airport 2.2999966 0.25467637 -0.04097719 -0.97600764 -0.40230745 -2.8628888 -0.03005817 1.440971 -0.88804114 0.031844128
risk 1.0852947 0.89267194 -0.3804315 0.970566 0.004717073 1.8163631 2.8694854 -1.0506607 0.4631096 1.0877491
your 2.1240268 0.46578717 -1.6423368 -0.9857517 -0.024317376 1.9986005 4.5519276 -0.9932693 0.036121964 1.5258584
may 1.7841531 2.1009386 -0.5887732 -0.56597275 -0.1381897 0.84577334 2.7528272 -1.5940031 1.2356249 1.5721202
later 0.22467548 0.1170677 0.07659889 -0.97313887 -1.7603784 0.31161737 0.52889276 1.9267025 -1.298007 -0.54157853
give 1.2777499 0.38068697 0.20616966 0.10075187 -0.84958106 0.8282916 0.94857645 0.011262346 0.070250705 2.4133759
ahead 0.025118042 0.99495596 -0.93374497 0.94142854 -0.41729033 2.9589999 1.2479773 1.1938473 -0.55698854 0.75145036
officers 1.3405322 1.0292399 -1.1290776 -0.055327676 -1.5763881 -0.865463 -0.54528445 -0.84146416 0.20216279 -0.19835302
tomorrow -0.3500926 2.417737 -0.14562708 0.36202395 -0.5105149 2.0773942 -0.86021304 0.25073805 -0.4038452 1.7549087
half 0.14279133 1.385011 -1.4768171 -0.11080767 -0.6016227 -0.49068093 0.23478416 1.4409814 -0.045467723 -0.07098382
due 0.33528754 0.32228452 -0.15836301 0.6893789 0.3005079 1.9446234 0.47133532 2.3689942 -1.4200685 0.16751492
un 1.7047817 0.7581022 0.32117027 0.83473396 0.65475684 -1.1123574 -2.813361 -0.4550172 -2.5550382 0.7735872
series 0.28197664 0.45877033 -0.4474424 2.0277512 -0.053773884 -0.47896156 0.09114667 0.0512594 -1.4702599 -1.6526866
laws 0.07929195 2.1218977 -0.114896804 0.7344485 -0.75128436 0.28057382 1.9626242 -2.9109173 0.15629497 0.9059396
able 0.8372973 0.42386597 -0.5815615 0.07821206 0.057756 1.1137917 2.2103271 0.77205414 0.42577386 2.3169894
interest 1.4807452 2.172708 2.0870905 0.76442814 1.4319056 -0.2497659 0.8695836 -0.9989457 -0.26833847 0.78742003
every 0.94689065 1.2483367 0.23584886 -0.5146629 1.0375111 2.3792837 1.8643948 1.1478767 -0.5735148 1.2304734
homes 2.761951 3.3403463 -2.121707 -1.0722818 -0.031922925 -0.44456306 0.0552993 0.16195601 0.9374103 -0.37334225
taking -0.25486213 1.7222654 -0.8905447 0.47301948 -0.67212963 0.2943932 -1.0940653 1.6530154 -1.2906476 0.43110895
weapons -0.11065969 -0.38278913 -2.0543659 -0.10037489 0.63317305 -1.7149894 -0.45722345 -1.1470888 -1.6679689 2.0080607
coast 2.1725876 3.1921213 -0.29387385 -0.5047266 -0.7643619 0.1384335 0.10945341 -0.27123868 -0.6471675 -1.5536013
behind -1.0112963 0.06915929 -0.6160132 0.35135132 -0.17697118 -0.048974838 1.1422483 1.4556324 -1.8468819 -0.20036957
hollingworth 0.44878557 0.33946678 3.913206 -1.5097655 -1.6056128 -0.35385236 3.6310432 -2.1820257 -2.4932628 0.8347179
policy 1.3856918 1.2328106 1.7345517 1.153528 -0.27254844 0.1841548 0.16008528 -2.5541515 -1.2622131 -0.60893124
network -1.5709682 0.68616444 -2.1735213 0.1827654 -0.048377376 -2.2703629 -0.07099979 0.7932165 -2.423416 1.7258859
western 1.7588543 3.9747899 -0.10733669 2.2323716 -0.36143103 0.08525387 -1.0337027 0.33634895 -0.11928702 -1.4393389
kabul 1.8690811 2.032246 0.03489977 0.4846258 1.0781957 0.16930333 -3.308403 -0.008338666 -2.4448416 0.37118977
pm 2.2544854 0.48492324 -1.2970973 -0.974271 -0.5986908 1.7390002 1.1475844 4.5376387 -1.4874473 0.14214869
great -0.0980315 1.0540587 -0.33928013 -0.028238324 -0.6210398 2.4867735 3.0403087 0.5470584 -0.4859342 0.8223378
latest 0.31495914 1.7982018 -0.3611474 1.214034 0.45805332 0.5103297 -1.0352755 -1.518888 -1.4145979 -0.2843049
late 0.6968196 0.7269649 1.3086346 -0.059997812 -1.6574035 -1.2011647 -0.9760927 2.8634706 -2.3999171 -2.0066023
plane 0.58238846 0.118562266 -1.227475 0.13705142 -0.6234629 -1.9029794 1.3360184 0.35994306 -0.6366802 -1.2763588
my -0.011820113 -0.68696874 -0.7176505 0.2200314 -1.5121496 1.3118244 3.8520176 1.618687 -0.8227653 1.2295676
remain 0.99340063 1.5934688 -0.6062727 0.478222 0.3971713 -0.089570574 -0.36627364 -1.0518434 -0.1347116 0.6584751
might 1.3527143 -0.555912 -1.2497554 -0.33759364 2.1859398 -0.2361159 1.9215456 0.031655367 -1.3809795 2.1683574
right 1.5693245 -0.8772934 -0.9383011 -0.24118756 0.7448505 1.4094087 4.044902 -1.3524777 -1.6323584 -0.20878863
shane -0.10852871 2.8169806 1.289546 2.669104 -1.7110611 1.3267565 1.0090742 2.9581206 -1.3917192 -1.972935
death 0.5942311 1.2101847 0.5291078 1.6037365 -1.07346 -1.7618448 0.3521887 0.75220186 -0.020027893 -1.5335773
position 0.23587123 0.18405518 -0.9248286 0.33492193 -1.1095239 1.4337431 0.8437056 0.10946544 -0.7658332 0.97813624
already 0.33308205 2.0816405 0.3708113 -0.78553486 0.0869384 -0.10284311 0.776847 -1.1971462 0.19013134 1.2626768
heard -0.3913584 -0.4966998 -0.30607048 -0.82109433 -0.3812094 -1.1384594 2.3119864 0.40553415 -1.1175565 0.66526306
deaths 1.4604136 2.5709727 -1.4311992 1.3401724 -1.9829938 -1.2371035 0.5305926 -0.40124416 1.694759 -0.29028025
forced 0.84837943 2.2087002 -0.6851765 -0.116938196 -0.1857804 0.49749637 -0.11053899 0.020399481 -0.24057195 -0.6074306
life -0.41247612 -0.75653476 -1.1953673 0.46275812 -1.7970853 -0.76105917 2.9372044 0.61608315 -0.4320174 0.65170676
hard 0.85324466 -0.11337928 -0.57514834 -0.3946252 0.97162575 0.35966492 2.5391304 -0.067330964 -1.4050064 -0.5312893
failed 0.11317469 0.26401925 -0.17089427 -0.9493867 -0.31926727 0.3945094 -0.17925502 0.77462095 -1.6700618 1.1975816
seen 1.3626913 0.0472142 -2.410269 -0.17588769 0.57074565 -0.7843494 1.6263475 1.2000034 -0.9354222 0.49060687
continue 1.233737 0.6063159 -0.21346293 0.59680355 0.13297555 1.7699585 -0.5498671 -1.1859233 -1.7707089 0.89815587
towards 1.1722734 1.4334319 -0.8500064 0.9847219 1.0208919 0.10555587 -1.0743687 0.28589085 -0.8202014 0.120489955
along 1.6739283 1.988886 -1.5165961 -0.6652675 0.030230893 -0.9866514 -1.6357546 0.7071783 -0.21527219 0.49184227
jihad -0.4095761 1.2516918 0.1368117 0.36057097 -0.72267795 -4.596225 -1.9888306 -0.736487 -2.8631897 -0.15394384
side 0.1731343 0.76938176 -1.50626 1.9825213 -0.13995045 3.4266152 1.6043515 0.0105174165 -1.7137288 -0.7328648
timor 1.2131741 0.9058519 0.44195327 1.8047894 -1.3604927 -0.020956723 -1.7481344 -1.2437766 -2.2966456 -2.105496
abuse 0.3557783 1.2380481 2.184697 0.31626084 -1.1914442 0.3536313 1.814028 0.5195263 -0.7658354 -0.7131775
territory 1.4179277 2.193135 1.3524387 1.1696897 -0.78145254 -0.90411496 -2.0963283 0.44396615 -1.0441674 -0.15230946
special 2.5448644 -0.2778531 0.6663111 0.24196348 0.5323397 -1.3537496 -1.9249507 1.2798342 -2.4561613 0.782718
others 1.4799826 1.709873 -2.0958002 -0.11273366 -1.9276454 -2.1942563 0.9599282 0.70417064 0.36861834 -0.32592028
guilty -0.3058663 1.2345334 -1.9156561 0.7573097 -0.24340203 -1.7474201 1.583837 1.2561615 0.7327214 1.1887093
campaign 0.042364355 0.95263916 -0.46949768 1.9497225 0.8343631 0.5586319 -1.1757785 0.43242615 -1.9925915 0.58396536
bill 1.1668315 1.5963398 -0.7221038 1.0490952 -0.75875527 1.8575094 -0.5997099 -0.6669246 -0.9022968 0.12934393
storm 1.201396 1.0401961 -1.6912091 -0.589808 -1.1431166 0.21209314 2.3678646 0.01943827 -0.13127756 -1.6638093
same -0.8774619 -0.31428102 0.2054488 0.39074415 -0.4564105 1.0710688 1.3332705 1.424711 -2.2105234 -0.7444706
flight -0.70759517 0.021700477 -0.59678614 0.45062158 -1.5607331 0.5835542 -0.28795636 0.434757 -1.3117098 0.08004051
concerned 0.48573446 -0.16108696 -0.79938006 -0.14118257 -0.102075316 1.2232699 2.6195128 -1.3368021 -0.9526637 0.7724286
victory 0.6100194 0.7707273 -0.450512 1.914858 -0.17759983 2.171506 0.30234772 2.1211202 -2.2017927 -0.5191878
cup 0.7145828 2.506218 -0.68962634 3.299774 -0.13567595 3.1722684 -0.6088609 2.7901938 -2.0412643 -1.0702038
jobs -0.6949068 1.6013376 -1.5160319 -0.5094035 -0.55576384 1.5027609 1.2685789 0.09324527 -0.3653483 1.4018856
thought -0.6446308 0.9069105 -0.54112387 -0.24109757 -1.0672473 1.5978388 1.7229949 1.0155344 -0.121145554 1.1900721
event 1.289788 2.2051203 -0.6268571 2.5976193 -2.8292928 2.334846 0.74184734 3.3325517 -0.09896111 0.24745181
me 0.37939546 -1.3716059 -0.87755984 -0.65609676 -1.0191919 0.6072262 3.8047037 0.7326669 -1.7110839 1.8140457
point -0.29533777 1.3670669 -0.59878874 1.4700758 -1.3489549 1.6436657 1.8837891 1.1552042 -0.15963906 -0.39141992
really 2.038387 -0.75634867 -1.0453647 0.28827146 0.29817256 0.7840214 3.9494612 -0.3537749 -0.67543143 0.8204411
washington -0.291538 0.42753282 -0.88839155 1.170126 -0.3564833 -1.6402315 -0.80740327 -0.05069841 -2.0069747 -0.82123226
member -0.34905982 0.54812706 1.2291547 0.99341905 -0.37919292 -2.036965 -0.93803024 -0.43811303 -0.97338086 1.2605708
buildings 2.0429993 1.9249841 -0.98990476 0.2151383 -0.20618482 -1.8206487 -0.08267484 -0.030729614 0.12631704 -0.27743572
november -0.79163134 0.7894576 0.67221063 0.039284684 -2.3080864 -0.35752845 -0.53168434 1.8976824 -1.2014282 0.537232
case 0.30332476 -0.6446422 0.49671185 1.8734738 -0.1205044 1.0794256 0.98237383 0.18383253 -1.2306476 1.682802
sunday 0.94224775 -0.41469678 0.70126486 0.18755774 -1.41518 -2.1755655 -0.770995 1.1437244 -2.7628262 -1.2754669
weeks -0.26297238 -0.11768843 -2.133291 -0.5076737 -1.4557775 -0.74609894 -0.70121515 2.3832786 -0.9099499 1.3970249
bombing 2.1035187 0.3318061 -1.7792118 -0.022624306 0.6602396 -3.052915 -1.3921477 1.8825092 -1.6214145 -0.5808805
mcgrath -0.7091157 0.9490684 2.0300198 1.2767888 -3.2516658 1.1708575 1.2555428 1.4784011 -1.5258206 -1.2323008
bowler -1.3674636 2.719751 2.2668922 2.471129 -2.8038187 2.3223336 1.1268915 0.98041123 -1.5237291 0.25146267
matter -0.21618663 -1.0862933 -1.421992 0.39976755 -1.0265907 1.506034 2.0693648 0.1439479 -1.6668866 2.3684812
th -0.7575255 0.573917 -0.8668685 1.5046829 -1.6162765 1.1496782 -1.3519384 2.4217336 -1.8060789 -0.10082211
innings 0.6151612 2.1275542 -0.6615457 3.2453036 -1.17192 1.679925 -1.1711117 3.1037145 -1.9290178 -1.386733
helicopters 3.1276598 1.6485668 0.60458755 0.21903355 -0.31837898 -4.0567927 -1.1099629 0.79434985 -1.6669 -1.5839193
bus 2.0157866 1.0488093 1.6117213 0.2639453 -0.49325237 -3.8368292 -1.3954433 1.445357 -3.3219721 -1.4692128
envoy 2.1191032 -1.4229113 1.0907149 0.573573 -0.50387365 -0.609801 -1.451908 0.7811482 -4.539723 -0.67937356
details 0.6136515 0.7130644 -0.22529362 -1.4381406 -1.5100106 0.20826453 1.5096118 -0.14254728 -0.10466946 1.3205091
countries 1.2946665 1.2124091 -2.4654386 0.8234951 -0.74318 -0.45495182 -1.8470364 -1.5322481 -1.3864719 -0.2559393
likely 0.6965551 1.1798278 0.31874818 0.26602602 2.019448 0.4993447 -0.27406612 -0.4116864 -1.0156105 1.1412696
middle 2.0664222 -0.5770445 0.17803793 1.1930958 -0.9236991 0.5839848 -1.3138273 -0.49070278 -3.9733133 -2.312879
canyoning 2.1768317 1.5727587 -2.544062 0.49097002 -3.23586 -1.7914362 0.74643654 2.6420634 1.0259091 -0.4184593
move 2.0400786 -0.84422857 0.47387454 0.39863902 -0.1035208 1.0693223 0.28005558 -0.6979724 -1.7620764 0.14496116
rates 1.5585546 2.1187475 1.9195251 1.6136016 1.1249038 0.46347994 0.746722 -0.67841786 -0.3665224 0.18411946
situation 1.428895 0.13475725 -0.31963015 -0.15560415 0.4743627 0.19510843 0.7755635 -0.31689227 -0.42704746 0.7939042
cabinet 0.65227765 1.6635869 2.4018707 0.6229086 -0.18437971 -1.4027301 -1.5391757 -0.066953495 -2.6704512 -0.97605115
again 2.8378084 0.581314 1.0033898 -0.35107297 0.37838158 0.52972513 0.24449861 -1.5045955 -1.1758717 -0.018354049
capital 1.0358919 1.6562741 0.6331785 1.1619695 -0.11143418 -1.105095 -2.1518195 -0.050681442 -1.908031 -1.3291811
woomera 1.3615916 3.612634 -1.3411465 0.58139515 -0.18348113 0.57143015 1.0866292 1.01578 1.2978518 -0.200149
seven 0.49416655 0.9230588 -0.84126306 -1.3279969 -1.915362 -1.1835594 0.103687145 1.4948528 -0.29898736 0.60384786
bichel -0.97032434 1.2551329 1.2350475 1.4635346 -1.3453314 2.3077524 1.4556752 1.8386189 -2.0077834 -1.2277583
warne -0.8284217 2.3914473 0.5144919 2.3271804 -2.004379 1.5958769 0.99495065 3.227188 -1.6155463 -0.96368235
mark -0.57508874 1.3884985 0.85612833 2.1551025 -1.8878199 0.98395365 -0.682426 2.1890862 -1.6391138 -0.6053855
launched 0.52679133 1.7821014 0.2345263 -0.13301821 -0.045987245 -1.8962351 -1.7040049 -0.12373507 -2.5337975 -2.1114707
according 0.21372236 -0.5397228 -0.062582 -0.3048325 -1.7688495 -1.824757 0.28867388 0.021342771 -0.79026324 0.67008597
detention 0.9636115 3.5402262 -2.1569438 0.60335666 0.030160062 -0.15344946 0.95020473 1.7880152 1.0828363 0.37296245
enough 0.9469334 0.29544824 0.14120182 0.74075997 0.17154115 1.7481668 2.3845341 -0.6540728 -0.75511336 0.90881574
bombings 0.27220374 0.46052316 -0.68869436 0.9683741 -1.6264069 -3.448473 -1.7088084 0.031827442 -3.542294 -2.2906816
important 0.5732398 -0.01108979 -0.40318197 0.6803605 0.21594377 -0.68757457 2.2395475 -1.2182299 -0.27647492 2.1626527
space 0.8894091 1.6986244 -0.3696645 0.8990771 -1.0954229 -1.7439286 -2.962576 1.7487967 -2.316485 -0.89379114
hour 0.35392135 1.8697882 -0.2647917 0.415324 -0.37943378 -0.28986937 -1.4122646 1.3856362 -0.7933839 0.164708
office 0.6693267 0.3111614 1.5330588 0.17926131 -0.5885314 0.19968672 1.2263273 0.841299 -1.3286846 0.26547065
wants -0.4731083 0.48395893 1.3826715 -0.014153882 -0.4224521 1.2739813 0.06545653 -1.0163662 -2.989548 2.166694
boy -0.60123694 0.89737236 0.42352366 0.51658404 -2.5302873 -1.8240023 2.5941558 2.3742993 -0.78642565 -0.32214683
human 0.59989804 1.2353821 0.6682336 0.2978344 0.4402066 -1.0182192 0.38455167 -1.3661846 -0.7596162 -0.36164966
adventure 1.2275178 1.452824 -3.863459 2.3827748 0.18167187 -0.05647728 1.5710797 0.4837395 0.30285266 -0.007456703
perth -0.01133358 3.149634 0.3716569 3.2539158 -1.2468266 1.9874306 -1.1803123 0.6708334 -2.0158725 -1.3027551
women 1.9322493 1.7114671 -0.40216282 1.1173592 -1.4144003 -0.031672027 1.5739676 2.6900926 0.64428276 -0.8578845
young 0.72075385 1.5839062 -1.0783577 -0.4256128 -2.1302128 -0.14752294 1.4532461 -0.06120835 0.53518116 -0.5522
political 0.39758712 1.0558989 0.25592625 -0.30469608 1.0938275 -0.3612903 0.05519477 -0.9181249 -1.4344374 0.9321082
deal 0.30567062 -0.10798705 0.27791747 0.6905437 -0.3077966 1.7242167 1.1173978 -1.5984616 -2.0370839 1.3236527
asio 0.39895707 0.60519046 0.115156285 0.4163928 -0.07618148 -0.10654252 0.7459537 -2.6366756 -1.1638839 1.4683818
based 0.66094315 -0.076678194 0.30004483 -0.43548852 0.2746936 -1.5387777 -0.72011906 0.3381934 -2.3938732 0.71665424
claimed 0.49002492 0.36909363 -0.050959185 -0.20248269 -1.1480206 -2.729946 -0.15419526 1.5859759 -0.6026391 0.51646435
commonwealth 0.24617225 1.7182097 1.5497212 0.25759578 -0.07871234 0.13180503 -0.38674733 -2.387622 -1.9280679 0.97407025
evidence 0.038437683 1.1344993 0.38427988 -1.5942547 -1.5049858 0.50346875 0.76837856 -0.5727019 -0.41280192 2.2326646
sure 1.5846733 -1.0377556 -0.8389172 0.066053584 0.10404875 1.4104836 2.3276153 0.40090227 -0.9071401 2.393623
justice 0.2517351 0.9302097 0.98513097 -0.27818242 -0.30391604 0.6210029 1.1801331 -1.517725 -0.92083853 0.99550444
swiss -0.014168768 1.5403329 -1.4548756 0.27322856 -2.4064279 -0.46619168 0.7713968 1.834945 0.5634551 0.9741809
jail -0.84487444 1.285143 0.5957235 -1.8208795 -2.6836314 -0.5115509 1.9289739 1.7895854 -0.73096997 0.37277323
reported 0.3367182 0.12603278 0.5683508 -0.62372196 0.5868684 -1.9085858 1.3842272 -1.1321963 -1.5594025 1.0677824
aedt 1.4644579 1.6290832 -1.4068366 -0.8543232 -0.55068034 2.1626189 0.97664326 4.3379836 -1.417456 -0.3263339
caught -0.21397956 0.49406064 -0.42901874 1.1405678 -1.1263758 0.14832391 -0.173186 2.4745495 -1.6755129 -0.1257892
own 1.7421573 0.8489315 0.085706204 1.1186353 1.2627981 -0.7497332 -1.9768091 -1.6923242 -1.9543667 1.5679737
movement -0.5745539 0.31327423 0.905407 -0.45011583 0.33122563 -3.5285106 0.30057514 -0.39313066 -2.390831 0.81157875
mission 0.025912175 -0.22122245 -0.7869947 1.2620167 0.15280001 -1.412635 -1.273366 1.0013387 -2.5461936 -0.44299492
african 1.7395121 4.3433595 0.990914 2.1058187 -0.26986775 2.9967496 0.35567987 0.8563953 -1.502847 -3.3239572
disease 0.054816157 0.95844066 -0.11663376 1.3225287 -0.35303736 -1.0722919 1.1109649 -0.5106892 0.05095303 0.06698179
added 0.5777583 -0.5547587 1.0185727 0.07103205 -0.93893176 -1.6845583 1.624502 0.9822101 -0.5628147 0.5921006
show 0.18258797 1.3334196 -1.0550022 -0.43237242 0.40958497 0.5785856 0.4937858 -0.60572827 -0.1588934 1.4177275
raids 2.0863671 0.61613303 -0.5376344 0.14609101 -0.89529055 -2.4348278 -2.7286713 1.3113356 -2.2262173 -0.5935126
blue 1.6357611 3.4994292 -1.563841 -0.37337795 1.2109051 0.8017189 -1.0806909 0.54976505 -0.30898386 -0.17636353
opened 2.431484 1.0521766 1.1340728 0.4565065 -0.5998595 -1.5933996 0.032850977 0.19132292 -0.88647455 -1.7060964
run -0.5608025 0.8954 -0.28639883 1.1210532 -0.0022157687 -1.1348616 -0.055921327 0.7030112 -1.2406306 0.20229657
money 0.4467129 0.6184845 -1.2278581 0.5421641 -0.329461 1.2872311 2.0647023 -0.18288931 -0.6960832 1.6065208
forward 0.9210409 0.21075563 -1.0375326 1.6906662 -0.16883887 2.7169533 1.5870032 -0.2737641 -1.3607179 0.64517045
immediately 2.0275543 -1.4694357 0.27152753 0.12704046 -0.12602665 -1.3636683 0.6340457 0.77242637 -1.266708 0.72916275
guides 1.3958427 1.5760926 -2.677427 -0.608852 -2.8517497 -2.2928214 1.0398251 2.000902 0.28614256 0.2611305
rule 1.8655673 0.18355732 0.37715617 0.7669801 1.5754344 -1.7279872 -0.16050914 0.10685556 -1.0140406 0.617311
top 0.704293 0.96615297 -0.9079189 0.84741175 -0.054971073 0.4979727 -0.61473626 0.6362253 -0.56121755 -0.064314805
carried 0.67498934 0.011117263 -1.2010525 1.3299023 0.10826362 -2.5901194 1.454693 0.28711528 -0.8428133 -0.17170446
freeze -0.6529358 2.7187412 -0.23299807 -0.47121763 -0.10509221 0.9666736 -0.2221239 -1.81666 -0.80145067 3.7754014
warplanes 2.954279 0.18213472 -1.4914902 -0.6418013 0.66886836 -3.3402548 -1.3632098 0.5174471 -2.8318858 -0.9574071
targets 2.2829645 0.7306392 -0.4176369 1.059134 -0.030534325 -3.2749333 -0.642683 -0.5472494 -2.2055447 -1.6921915
cancer -0.59759206 1.9568329 -1.2357712 1.1384487 -2.1996238 -1.4247484 1.027223 1.1214916 0.30640197 0.043023013
ms -0.02812991 0.7647974 0.7257239 0.25867513 -0.88133943 -0.25356194 3.595296 -0.4986834 -0.4800071 -0.34852946
dispute 0.5811711 2.194285 -0.18141353 -0.9554887 0.6537421 0.60920936 0.669974 -1.4157113 0.08779606 3.0799706
wicket -0.35688 1.7202052 0.10564503 2.721949 -1.6490725 1.428784 0.21978855 2.4215045 -1.5484511 -1.1274651
times 0.20922934 -0.47631484 -0.40707228 0.20642187 -0.64146566 0.6836082 2.1780348 0.89243007 -0.5531333 1.396073
face 0.76282215 0.17890503 -0.0838393 -0.7451591 0.2739657 -0.5025706 0.81739616 -0.683703 -1.0580671 2.0015967
march -0.3627399 1.2214484 0.6343404 0.57473385 -1.9411587 1.5826299 0.26211023 1.9229207 -1.3076108 -0.07641475
always 0.5729502 -0.807783 -0.92970395 0.1740102 -0.36427343 0.32921055 3.7275565 0.629778 -0.3363043 0.094758324
investigation -0.70969075 0.92403346 1.0475876 -0.28255144 -0.5936347 0.4191025 1.5845768 -0.9281696 -1.0311667 0.65362436
border 1.9697793 1.6085451 -1.2886232 -0.90995723 1.4759892 -1.608349 -1.8635577 0.62904745 -1.4179353 0.3755113
flying 0.7217711 1.7653621 -1.02024 -0.7651421 -0.26122123 -0.6000238 -0.21285273 1.0356282 -0.17217419 -0.29254606
full 0.8043233 0.37525755 0.3014528 0.49473602 -0.15744601 1.5947971 1.3667705 -0.46534032 -1.2738233 1.4320459
allegations 0.5947108 0.42754358 0.5886648 -0.67423075 -0.9695933 0.44975704 2.2552056 -1.1003039 -0.84700876 0.1890172
sector -1.0460434 2.9382226 0.08455026 0.5226485 -0.29013485 0.021013236 0.99483055 -3.3078077 -1.0363029 1.8218307
financial -0.6364396 1.8827834 1.1315429 -0.90616214 -1.7156128 0.72418857 1.0975491 -1.3203987 -0.92978585 1.277916
although -0.3123517 -0.5518924 0.15007009 0.06576946 -0.2037245 -0.1024466 1.3526771 0.7434648 -1.2676241 1.2261856
growth -0.25741047 1.963668 0.069680445 1.9654417 0.3825265 1.3973012 0.68657035 -0.7861692 -0.98799044 0.22609046
ground 0.92530155 0.4671357 -0.15304856 -0.31808713 0.4567298 -1.6159592 -0.62263674 0.6376753 -1.4888589 -0.037032742
burning 3.150718 3.1043744 -1.9813135 -1.0046339 0.13788469 -0.2681185 0.9168602 -0.22038628 0.4389665 -0.45942318
result 0.08048545 0.26203278 -0.3627152 0.60361934 0.0062037474 1.1724548 0.30927017 -0.58501685 -1.4382038 -0.17193167
order 1.0268104 0.045561507 -0.3067113 0.6890734 -0.3314946 1.6356789 0.51791865 -1.6866798 -1.9996803 -0.58767164
crash 0.77403086 1.6100043 -0.18256447 0.22282578 -2.600527 -0.56372523 -0.32177782 0.67274666 -0.04966649 -0.5170284
planning -1.4835916 0.4574628 -2.4220474 1.6756887 -0.74409974 -2.4254956 -0.4126387 -0.23526093 -2.217845 0.9015302
break 0.7233229 0.9770741 0.31320322 0.080679715 -0.035346575 1.1057243 0.33746648 -0.003175098 -1.561939 0.6159615
island 1.2225231 1.8529307 -1.0394033 0.7403199 -0.68535453 0.7885886 -1.6808054 0.23525457 -0.4748999 1.1358452
job -0.65149605 1.6532754 0.37331122 0.35999072 -0.8156174 1.2971382 0.9321279 0.28432673 0.18533349 0.5801903
become -0.22087835 1.9715534 -0.7082855 0.16554348 -1.8494395 1.1134527 0.5923828 -0.29482973 -0.1674484 0.7532896
carrying 0.6862265 0.9757192 -0.41637373 0.33427715 -0.39472675 -2.0157478 -0.885465 0.38942155 -0.8764252 -0.79192626
find 0.9403457 -0.5004884 -2.9790795 0.6397499 0.19340687 0.31768382 1.6121721 0.7301457 -0.47198278 2.5019848
using 1.6488644 1.6503179 -0.83278763 0.1664575 0.029233607 -0.17487676 0.8069614 -0.7813258 -0.1616847 -0.6474452
access 1.1521206 1.3219242 0.45608753 -1.2622515 0.9037874 -1.0651106 -0.44362688 -1.6257066 -1.592821 1.5084003
beat 1.2459241 0.44272414 -0.20761518 1.6119359 -0.38767946 2.6818354 1.9781481 0.6993534 -0.8968136 0.5210172
prepared 0.6449907 0.7483774 -0.4410577 -1.1597422 0.21077807 0.68356335 0.64714205 -0.8913427 -0.8748205 2.2117105
each 0.4551546 3.1045809 -0.71525335 0.6039028 -1.9461622 0.7680627 0.10574606 2.17665 0.6846401 -0.46187153
certainly 1.1005062 -0.055021193 -0.50076973 -0.24789017 -0.50332093 1.4433898 2.5854335 -0.17766729 -0.64459324 1.2653782
banks 1.0862495 1.0594276 1.0426931 0.55157065 -0.34267363 0.9037041 -0.38171622 -1.284908 -1.2052242 0.2186038
reached -1.06012 2.1805122 0.21342929 -0.69282097 -0.6415982 -0.15479675 -0.5084101 0.683055 -1.0957685 0.8761811
proposed 0.6330952 1.6173832 0.25301027 -0.26636654 -0.3565178 1.1989346 0.46962535 -0.8699304 -0.60212266 2.4533656
probably 0.8626971 1.3398832 -1.7889405 -0.41905805 0.54999137 1.4790082 1.6413096 -1.3133744 -0.26841497 0.6006471
collapse -0.4991222 2.1390038 -0.7993446 -1.101558 -1.3049798 0.8206828 -0.4705021 0.6598462 -1.3855679 0.64948857
relations -0.6745572 3.4367998 1.7353725 -1.6542162 -0.15543608 2.5160847 -0.90439475 0.16413717 -1.9884578 1.750993
inside 1.4316709 1.0637954 -1.6933048 -0.31923953 -0.49819696 -1.294534 1.0581356 0.98356664 0.2311023 -0.12780856
reserve 2.510864 1.9026175 3.2043571 0.14101544 -0.16149913 0.29699236 -0.69912034 -1.1673179 -0.42841592 -0.4444379
allow 2.0634735 0.031091504 0.32310563 1.1235397 -0.5871117 0.72728646 -0.50928295 -1.0602788 -0.88493174 0.43504506
tourists 0.85809773 1.2279824 -0.83806235 -0.503868 -0.5514944 -0.120320104 -0.16723013 1.8654828 -1.0534394 -1.647057
militia 0.30534616 0.5500879 -0.9323868 0.033921715 0.38982335 -2.320874 -1.6380299 0.584065 -1.5018601 2.079872
organisation 0.3816494 0.7456102 0.9980169 0.80664164 0.04325259 -1.2473978 0.23991895 -2.1546476 -1.1387557 1.5269419
radical 0.35311258 0.41290006 1.7337726 -0.13433826 -0.7913663 -3.8205903 -0.59178054 -0.665907 -2.3250155 0.9964153
militant 0.6441965 1.1573559 -0.6162373 0.21743886 -0.4218594 -2.2901208 -1.2344377 -0.56615216 -1.1803833 0.318317
afp -0.43217716 -0.22884175 1.0770073 0.566852 -0.5984995 -3.2463598 1.24848 -0.29531488 -1.3737147 1.0115215
road 1.2579706 1.8559738 0.02797407 0.6464011 -0.47714195 -1.224739 -0.84279865 0.90734625 -0.59546024 -0.5906399
wave 0.8599002 -0.12679674 -0.80112904 0.39278653 -0.46609634 -1.912166 0.49880287 0.91608214 -1.3078971 -0.71697706
different 1.6452667 1.0865823 -1.1811347 0.75564975 0.16307375 1.9996376 2.6941397 0.09776175 0.202955 -0.79814583
executive -0.06642514 1.4403939 3.6268117 0.20213446 -1.4597589 1.0535767 0.70779985 -1.3061122 -1.8814192 0.7566724
energy 0.4963986 1.7784375 0.70379317 -0.8053218 -0.50649685 0.6756332 -0.14484653 -2.769467 -1.5385469 2.3119373
clear 1.2280811 -0.67757297 -0.40134895 0.55561316 -0.21481311 0.49604362 2.5884268 -0.05077071 -0.84789824 1.661353
serious 0.25016937 0.62044567 -0.02216513 0.019735064 -0.24306303 -0.035990134 2.8394854 -0.500345 -0.4349918 0.63518476
responsibility 0.03381943 0.105416335 -0.21627782 -0.46386114 -0.15976079 -0.4970665 1.185791 -0.17289387 -1.1333228 0.9801775
hewitt -0.52234226 0.67093277 -0.07100491 1.1323389 -1.0448601 1.9840344 1.0960243 1.0613616 -1.4071394 -0.12820609
post 2.0708745 -0.016123738 1.2712151 1.3636612 -0.11172675 -0.6792876 -1.583829 0.17933205 -1.2680587 0.7086774
making 0.67787784 0.8234817 -1.1489632 -0.20066392 -0.23419178 -0.070083015 1.3670896 0.40048197 0.36290234 1.6111706
inquiry -0.64743924 1.033572 0.85082793 0.23230423 0.057844575 0.5740308 0.9719227 -0.39487955 -1.7951913 0.9382974
sent 0.7605255 -0.30442026 -0.4475121 -0.6508655 -0.96336263 -1.727401 -0.39614204 1.0853652 -1.4067694 -0.24759763
harrison -0.075563475 0.2639521 0.13080974 -0.33025587 -1.5792309 -0.6173001 0.7640306 2.2015047 -0.8186004 -0.35739726
suspected -0.8968929 -0.046769846 -1.2952207 -0.919725 0.23720923 -2.6287687 -0.8201629 0.10161346 -2.0930178 2.88175
surrender 0.79371285 0.011052316 -1.0603117 0.30696616 0.54044926 -2.4519706 -1.1096909 0.27628723 -1.2588896 2.0816526
trees 2.5119874 1.0192419 -1.7924852 0.12856264 -1.2930477 -0.16439526 1.3290795 1.1159601 1.0604917 -0.08568365
management 0.2723435 1.2697929 -1.0559497 0.18845816 -0.019801948 0.86986196 1.0564237 -1.1227331 -0.30177033 2.107652
thousands 0.629422 2.514071 -3.1345987 -0.52111506 -1.7847732 -0.9525924 -0.38117862 -0.27779043 0.3709607 0.11124119
thursday 0.8299261 -0.031255823 -0.56590366 1.1985033 -1.1492519 -0.040565476 -0.28742322 1.5115737 -1.0826494 -0.24989349
needs 1.5189366 -0.3604231 -0.4178248 0.19835258 0.6194465 1.221883 1.294448 -1.0126048 -1.366693 2.31486
bowling 0.26305774 0.9400511 -0.5917716 0.8240466 -1.3817816 2.1594741 1.2415895 1.4302471 -0.5920696 0.25041023
future -0.026275048 1.2089771 -0.4995793 0.47843805 -0.33876583 0.43193018 1.0412048 -1.2428616 -0.37306494 1.6053873
rejected -0.9149471 1.8341589 1.4196246 -0.7061332 -0.063105755 -0.47941035 -0.030939186 -1.0993843 -2.3413231 0.59688544
outside 0.59040594 2.1470368 -0.24810742 -0.37731886 -0.22841011 -0.7488115 -1.1003973 1.0585756 -0.41358915 0.07968277
opening 0.60753816 1.2993737 -0.21896027 2.0701346 0.4996942 1.3552185 0.26266605 0.75580776 -2.266031 -1.1934605
travel 0.22933558 1.8129255 1.2947365 -0.07031453 0.010626148 2.0713024 0.5915799 0.0075467792 -1.0399656 0.9110779
kilometres 1.2790376 2.1507332 -0.7545671 0.2962593 -1.4981327 -0.32095355 -0.96931595 1.292347 -0.44028297 -1.2214308
short -0.6688062 0.678267 -0.07210445 0.53589094 -0.67486936 0.74865115 -0.0632072 2.2152102 -1.5169054 0.8320314
killing 1.9634197 1.0832677 0.045351774 0.9423902 -1.3957127 -2.7732713 -0.8808703 1.2870085 -1.1207234 -1.3434952
ariel 1.1695752 1.5428671 2.6880262 0.003891922 -0.06657194 -1.1535752 0.7651815 -0.33609068 -4.5424175 -1.4686931
quickly 1.1393633 0.61923087 -0.4469669 1.1219283 -0.40083003 -0.033182018 0.9377588 -0.081709735 -0.6388978 -0.34604144
howard -0.35583544 0.14369337 1.804655 -1.3470589 -1.3847626 1.3739414 1.3892889 -0.8168042 -2.7095597 0.27869746
went 1.171308 -0.5927852 0.032026835 0.12803747 -1.4057795 0.26741838 1.2117602 1.2616905 -1.8601414 -0.63813883
drop 0.3131118 1.8143287 0.28666496 0.6779894 -0.562507 0.41576472 0.8719599 1.0606052 -0.020216301 -0.35129735
bid 0.28841624 -0.4828907 0.20185156 0.043537714 -0.46714026 0.5381303 -0.6400727 -0.33990112 -1.880107 1.3337907
sex 0.17184894 1.3468004 0.16281086 0.9221827 -0.48471057 0.49367836 1.2114805 -0.49059165 -0.10757271 0.40923476
himself -0.64396375 -0.32115778 -0.8160136 0.108679414 -0.09825564 -1.1672889 0.21771765 0.5963071 -1.0247214 1.0526154
declared 1.1066195 1.1704159 1.7773224 0.5173978 -0.6497682 -1.1331853 0.34577182 -0.056338638 -1.6014782 -1.0491316
comes 1.3374238 -0.7389462 -0.6271316 1.0720009 0.13499804 -1.4126599 1.3424057 -0.3589964 -1.442897 -0.22973093
fight 0.8816494 -0.023984728 -1.1254678 0.13341574 0.5940572 -1.5201565 0.6520162 -0.043021593 -0.9508473 0.38410103
lives 1.295496 1.2735014 -1.9290861 -0.1405397 -0.33358648 -1.2302238 0.84531283 0.10650778 0.45441625 0.7583098
soon 1.4725007 0.44239375 -1.0473558 -0.7098993 0.5175725 -0.34476957 1.6623518 -0.2073244 -1.1473469 -0.5745787
ansett -0.93801665 1.4681352 0.20955959 -0.025591278 -0.1303002 1.0530121 0.97765297 -0.08955892 -0.8530131 1.4006281
immigration 0.91976404 2.1983597 2.7754545 -0.4731814 -1.0661706 -0.98735136 1.1987435 -1.2691796 -0.79538757 -0.63210374
caves 0.61673117 0.03018187 -3.0260928 0.13315396 0.5299605 -2.3783176 -1.1004086 0.9421873 -2.0423126 1.6038494
tried 1.3133264 -1.2157271 -0.9458738 -0.34084618 -0.79749435 -1.3115693 1.2338074 -0.3881939 -1.2331598 0.17745401
stage 0.033245742 -0.047275074 0.11245565 1.7138803 -0.7289988 1.2433133 1.1793694 -0.19760998 -0.9652954 0.34392706
argentina 0.16969317 1.0731632 0.3405415 0.6022817 0.118725084 0.21026629 -0.4325295 -1.9010057 -1.9156368 0.5560562
believes -0.28663123 -0.24465114 1.2353535 0.16571973 -1.5368577 0.33040395 0.8467195 -1.3842188 -1.3112622 2.132034
senator -1.108547 0.6048725 1.8125787 0.1642046 -0.6871923 0.10567209 1.2640402 -1.2434874 -1.4772037 2.1314507
flights 0.07099395 1.6151193 -0.6811981 0.43868774 -0.60083663 0.95344806 -1.0721482 0.022927625 -0.61346483 1.1454395
calls 0.32407337 0.785293 -0.44458607 -0.9688337 -0.33753774 0.2163936 -0.40441683 -0.50381225 -1.4573535 1.1079051
program 0.5206117 0.03700724 -0.26093256 0.79211897 0.392788 0.8185719 0.98576194 -1.4472078 -1.5768172 0.619103
getting 0.79458874 0.7503063 -0.90498894 0.059205595 -0.28528368 1.5916532 1.1016374 0.41408116 -0.66848344 0.15824972
until 0.50585866 1.2554199 -0.09948071 1.0267105 -0.06130806 1.2537467 -0.23617503 0.48741186 -1.0689409 0.7178767
alleged -0.09934337 0.91344005 -1.3211471 0.18043698 -0.6686777 0.35881615 0.63924134 0.8687459 -0.47687206 1.090436
sentence -1.0118792 0.8003059 0.56413746 -0.9491528 -2.523671 -0.235502 1.748862 1.9496329 -1.1700891 -0.10907607
circumstances 1.260412 -0.13133673 -0.9168129 -0.11158861 0.4791138 -0.06636181 1.857737 -1.1362303 -0.862612 0.7920628
television -0.06898059 0.18037689 1.2752534 -0.024565317 -0.28877625 -0.9237145 0.8573841 0.33633944 -2.0154567 0.056865536
quite 1.022561 1.7597282 -2.0093775 -0.10132928 0.73458874 0.8726562 1.6615152 -1.578949 0.48218152 1.0417609
annual -0.30014423 -0.13856015 1.6408386 0.003532618 -1.1404939 0.91805834 1.3549501 0.5370031 -1.3530784 1.110486
rural 1.93764 2.7318723 0.5632131 1.4593564 -1.4509331 0.17312999 1.3576978 -1.0833904 -0.11797622 -0.50047916
wounded 1.409482 1.0458823 -1.5897005 -1.2642986 -1.7620282 -2.9184656 -0.35524014 1.6885196 -0.81973577 -0.13698432
try 1.2790433 0.3585269 -0.3087057 0.04234908 0.35396114 1.3928901 0.23508817 -1.2323234 -1.4450068 0.9366492
open 0.18401137 1.2487507 -0.25491914 0.49238288 0.9163142 1.3712893 1.14273 0.44809517 -0.51456845 0.70702344
attempt 0.8127492 -0.42019033 -0.24237213 0.78840417 0.4998367 -0.27060297 0.5673326 0.738774 -1.1409203 0.6336466
white 0.94874513 -0.034936823 -0.45735756 -0.042186562 0.80160147 -1.0506377 -0.509734 -0.28407404 -1.3387758 0.4348796
terms -0.15284432 0.81337184 -0.7738389 -0.40358287 -0.62155074 0.72840714 1.980087 0.875932 -0.103234164 0.57980436
ruddock 0.09010576 1.6474485 2.351201 0.22059277 -0.87213546 0.20303449 1.5539634 -2.2136023 -1.4394746 -0.45808843
among 0.83579487 0.41633135 -0.60832417 0.8914753 -0.013711582 -1.3404377 -1.0432776 0.5807295 -0.19714382 0.22950877
offices 1.7387097 0.45172167 1.9475539 0.3934104 -1.3640822 -2.1203582 -1.0123261 0.32184374 -2.179958 -0.8942705
sea 0.68295866 0.9358351 -0.25170198 1.1761869 -0.5109617 0.11941395 0.2813772 0.5708018 -0.068755925 0.21118936
currently -0.024031954 1.0212593 -0.080577485 -0.953423 -0.26671726 -1.0279893 -0.78550553 -0.3135807 -0.8637142 0.9821219
tanks 2.5214345 0.67690164 0.60837156 0.20972511 -1.3154597 -3.0088692 -1.0177556 0.41564125 -1.2954246 -0.91478455
available 0.7847869 1.3321137 -0.4925089 -0.907955 0.44005647 0.64668953 2.1852357 -1.0686176 -0.17841494 0.84065986
sources 0.8224701 -0.5276937 -0.029904518 0.077931106 0.5090672 -1.9676939 0.6739635 -1.2394687 -1.3775088 1.3025458
ended 0.9544054 1.3798128 -0.6632726 0.26100302 -0.09149391 -0.0711768 -0.17747633 1.5520799 -1.1103909 -0.66610837
donald -0.15486893 0.76669526 1.5505962 0.59194475 -0.32530132 0.38061643 -0.7703069 -0.95630074 -2.011868 0.73516893
anything 1.5337429 -1.0857282 -0.98092157 -0.22128642 0.36673534 0.54553515 3.0059264 -1.3197519 -0.7524978 1.8254713
refused 1.0852011 -0.8730544 1.2198552 -1.4331105 0.020351425 -1.1835587 1.5246907 -1.2978832 -1.5816063 1.1217058
look 1.8299373 0.12046033 -1.6400007 -0.023214968 -0.06985407 2.3243873 2.8420446 -0.5174415 -0.20963764 0.53437924
figures -0.4136177 2.1502113 -0.66535836 0.93831646 0.50974673 0.47760406 0.9194456 -0.7469185 -0.3774091 1.0171522
changes 1.4694732 0.63143694 -1.1880494 1.121096 0.0030012182 1.6238389 1.1173178 -1.3887553 -1.0034156 0.86923397
means 1.0171162 1.1774759 0.68368757 0.13683218 -0.122501425 0.18001738 0.6757692 -1.1148412 0.11722167 0.89450425
measures 0.8682902 0.28151798 0.44653115 0.24920891 0.9560479 -0.3916386 -0.07774701 -0.5845099 -2.2211072 -0.21823686
alexander 0.50916785 2.9584794 2.8116302 -0.51729023 -0.10131209 -1.0343224 1.7359313 -1.8718401 -2.5181215 0.3659775
shortly 0.97905844 -0.4083862 -0.22491394 -0.0013833287 -1.7107333 -0.030983267 -0.92175806 1.6883782 -2.228667 -0.582412
yacht 0.8791161 3.6310391 -0.34758124 1.0429955 -1.8096712 1.1134937 -0.41666785 2.1812687 0.21178082 -0.7267127
issues 1.1876572 0.61545503 -0.662046 -0.39198038 0.066400945 0.8725087 0.9654699 -1.0308775 -0.58814925 1.4833446
form 1.360616 0.23581168 -0.1887321 1.2212622 0.28458536 1.2339752 1.1887202 -0.32782352 -0.86500865 0.2782762
july 0.27759832 1.0261017 0.05759212 1.4448004 -1.4250219 -0.5748174 0.0037880128 0.51766735 -0.71191686 -0.046842046
victoria 0.372002 2.9020646 -0.016750243 0.52406126 -1.0371758 0.68088907 -0.4330079 -0.30025166 -0.55707186 -0.27476692
running 0.48261535 1.5111941 -1.0029078 -0.394637 0.06084337 -0.06400931 1.3865027 1.124386 0.3100021 1.311019
bombers 1.7336013 0.68597466 -1.2626295 0.71309924 -0.44346064 -3.1584287 -1.5664024 0.57123864 -1.7046562 -1.7453583
agency -0.015076181 -0.029912585 0.49456474 -0.28049326 -0.044544775 -4.2570133 0.89974815 0.83703774 -2.520848 0.99172205
address 0.423453 -0.5320609 0.7782706 0.84799546 -0.050134517 -0.4644506 0.78817385 -0.5158342 -1.9393079 -0.49764574
response 0.6793014 0.25150597 0.20911635 -0.010571692 -0.32119453 -0.91283727 -1.0669286 -0.72977716 -1.8803209 0.020132774
gunmen 1.8935515 0.5950764 0.33542138 0.47853404 -1.2917416 -3.4457903 -0.3200752 0.14754082 -0.5602933 -0.1786375
karzai -0.5709265 0.0788208 1.0150172 0.8132721 0.5224028 -1.130773 -1.156902 -0.99602914 -2.442767 1.0141685
meet 0.5963341 1.2678024 0.76237607 0.64956987 -1.0538023 1.4151475 -0.8023754 -1.3771571 -2.3749986 -0.11262389
happened 0.6438318 -0.9019241 -0.2344428 -0.61653554 -0.21009845 -0.09225424 2.7093325 -1.0200086 -1.2154217 1.1552415
directors -0.3515728 0.9805374 0.7010488 -0.76763976 -1.747939 -1.0899851 1.2717891 -0.44658294 -0.3739643 1.0345774
actually 1.186297 0.07533864 -0.24432272 0.47949603 0.5254031 1.676526 2.0092134 -0.251574 -0.92770743 1.6296457
jewish 1.9363204 1.7535396 0.35002524 0.40877917 -0.70598066 -2.7813025 -2.028888 0.058426723 -1.546197 -1.4359136
yet 0.7748499 0.17657998 -0.040423654 0.47523916 -0.49893248 1.1297023 2.0660033 -1.4014636 -0.5338078 1.4387408
something 1.3057237 -0.7404659 -0.9739989 0.3887009 1.2646202 1.1008354 2.001612 0.7070774 -1.7445171 0.29659942
done 0.49975875 0.44602183 1.1778406 -1.2084087 0.48144096 1.3014954 1.9580706 -1.2441076 -1.4283041 1.5415606
wickets 0.7639558 1.3973255 -0.9955184 1.0950704 -1.3633618 0.9472533 0.71923244 2.0776272 -1.085221 -0.6942016
residents 1.5633279 1.7782338 -1.4598219 0.047488865 0.3788507 -2.1337965 0.039128713 0.6388983 0.12683813 -0.21776748
returned 2.094892 0.1664534 0.00751973 -0.67650723 -0.88605297 -1.5979098 0.41400552 0.81618524 -0.38789764 -0.24443878
destroyed 2.4574032 1.3416152 0.23491813 -0.55242395 -0.73791254 -2.361405 0.7921564 0.74069524 -0.014396829 -0.7481267
brisbane 1.3425056 1.3721 1.6451524 0.00080021785 -1.2615533 0.20130993 1.1486347 1.1101573 -0.5518544 -1.0668899
announced 0.004444113 1.3560401 0.5373279 -1.2413939 0.0058831424 -0.63369983 -0.23763813 -0.48209408 -1.7214457 0.18358718
accident 0.74663234 0.38974455 -1.2707548 0.31247205 -2.2101157 -1.0778325 2.0649886 1.5243776 0.34422943 0.063426755
warned 0.8594583 1.6896127 0.30948624 -0.58367246 1.1882172 0.07899522 0.87192655 -1.9044945 -1.173372 0.643948
understand 1.210148 -1.4778832 -0.5947443 -0.2280628 -0.008059594 1.1963145 2.630716 -0.76925266 -1.157961 1.7612728
parts 2.0367682 2.9644523 -1.9948707 1.1816577 -0.1931718 -1.2631016 0.52491874 -0.19993205 0.2195971 -1.9994966
rise 0.34153458 2.0720859 -0.520948 1.6565193 0.18237728 0.7310068 1.6222293 -0.55407125 0.4973091 1.6193793
decided -0.13385327 0.4449138 0.33493626 0.06613957 0.081254736 0.71705383 0.11701496 0.0374315 -1.714499 0.6896353
ministers 0.05097112 0.48575306 1.6868109 0.9018497 0.021519171 -1.439521 -0.13203289 -2.1006021 -2.0343702 0.22180879
witnesses 0.7914819 0.53725415 -0.26212308 -1.2532996 -1.1057761 -2.3490932 1.2842109 0.84555095 -0.7215013 0.021767994
biggest -0.7725944 2.4938552 0.28125823 1.8446862 -1.3487942 0.78356665 0.21227132 0.55771565 0.30122802 -0.23410523
parties 0.7020135 1.5275605 -0.28348848 -1.6109257 0.7759439 0.047571942 0.5513738 -0.404636 -0.34824547 1.7712749
nine 0.5223209 1.2694206 -0.7484295 0.01328541 -1.6491656 -0.01224956 0.54575455 2.1940413 -0.22016835 0.6245154
list -0.061976872 0.48720625 0.45327386 0.38060072 -0.36307445 -2.3744683 0.29011208 -0.6347905 -0.8735637 0.35329404
source 1.407545 0.063956164 0.9343914 0.19436428 0.5032253 -2.3907623 -0.08042941 -0.82364684 -2.0202978 0.07606542
kallis -0.78116363 0.696983 0.42156017 2.2416382 -1.5257382 0.5367758 0.3221468 1.8537989 -1.7079816 -0.9144798
fighter 0.6255364 0.19006011 -0.2377359 -0.7678268 -0.72552496 -3.4052944 -0.9789502 -0.0843966 -0.8974994 1.199626
school 0.7787572 2.019944 2.1950362 -0.68209827 -2.92651 0.14561924 2.9076464 1.6298734 -1.0957652 -1.2010218
increase 0.30124733 1.8784271 -0.01504555 1.1349949 -0.24684563 0.73505855 0.1485283 -0.1066554 -0.31548902 1.3645283
rights 0.45042345 0.8862544 0.6672679 -0.30650833 0.19606666 -1.0301685 1.2435967 -1.6128381 -0.8634528 0.541309
caused 1.0080602 1.9563454 -0.9343362 0.991525 -0.83479154 -0.47361025 -0.12067693 0.094732426 0.22910416 -0.046740424
allan -0.16487834 0.91951376 0.9770779 0.5634319 -0.5102513 1.364846 -0.0065392563 0.10101924 -1.3148851 0.7772065
tour 0.69263554 1.6643071 -1.3170973 1.3020117 -1.2660487 1.2836169 0.7141895 1.359948 0.092267774 -0.07345411
highway 1.0858767 2.391938 -0.5817778 0.03296231 -1.0413893 -0.71576357 -0.7081022 0.8719993 0.109100945 -1.4329301
deputy -1.0946335 1.7318536 1.869829 0.15422109 -1.2387824 -1.1825123 -0.4884835 0.30030522 -0.9338779 0.5540285
media -0.8812377 0.11726436 0.56522655 0.49212432 -1.1138817 -0.59588397 1.3496642 0.6732927 -1.0448729 1.1231594
commissioner -0.4015001 2.9093106 1.4743383 -0.55906194 -0.43167478 0.5692296 0.05391578 -1.8062792 -1.0894337 0.6131573
arrived 0.7167448 1.0264654 -0.049548246 0.13480808 -0.53984684 -1.5402824 -1.6339865 0.43906853 -0.6477178 0.6890352
facility 1.3401734 2.100928 -1.0171618 -0.48230934 -0.44726965 -0.03502951 0.29591182 1.3157697 -0.057140823 -1.3358725
away 0.77599955 0.5867821 -1.3108158 -0.031891026 -0.65834737 -0.33790278 2.323945 0.45810953 0.20768061 0.08545086
elected 0.012272921 0.18444595 -0.20476818 -0.45176378 0.23875731 0.1583784 0.7129956 0.17790338 -1.5746603 -0.34348384
though 0.84940046 0.89364433 -1.0844345 0.42884964 1.0617692 0.24295391 0.34711897 2.2185907 -1.363003 1.4388967
advice 0.8511382 -1.1350182 -0.40571642 -0.94577396 -2.0654535 0.79365563 2.635043 0.20802535 -1.3185438 1.6460482
supporters 0.21371195 0.79337054 -0.32852954 -0.8734091 -1.0769045 -2.9685903 -0.46206936 0.03249134 -1.1529676 0.8786615
ses 0.77325076 2.3302584 -0.44139183 -1.1132576 -0.5641302 -0.02278994 0.75463724 -1.5413309 -0.11039542 0.52185136
total 0.7677645 2.016402 -1.909399 0.2854494 0.42441204 -0.40783224 -0.35025078 -0.09598349 -0.27032495 0.12564743
pacific 1.6775955 1.7216178 -0.54629487 1.0382082 0.39954817 1.4634339 -0.5056814 -2.609913 -1.6352999 0.082836345
cost 0.020600742 1.119511 -0.17355391 0.32836202 0.39607346 0.2150256 1.1242329 -1.9521903 -0.3728331 0.3317573
law 0.5463931 0.2255378 0.69935924 1.2045043 -0.43213215 -0.018185133 0.37550196 -1.0129776 -1.0277696 0.7301722
wage -0.739358 2.6239698 -0.05636998 -0.9801764 0.4369821 0.8058601 -0.0027324327 -1.1736088 -0.68770045 3.4069622
fact 0.8357379 -1.1207384 -0.40284473 -0.18367556 0.7435242 0.33766076 0.9122709 0.16226584 -0.7701813 1.3910415
difficult 0.15809692 -0.6998798 -0.982476 0.11891735 -0.19499002 0.5233074 0.9845905 0.72711724 -1.0257425 0.9252072
prevent 0.15058231 -0.0032675543 -0.26450342 0.11178744 0.20352422 0.3300483 0.96244323 -1.0731949 -1.1844181 0.5099958
began 1.5424522 1.0393158 -1.0045712 0.43506086 -1.3520933 0.36915973 -0.474419 2.0032473 -0.7494712 -0.47247332
confidence 0.45524618 0.10810631 -0.15282407 -0.085514545 0.22920437 0.6869659 1.3527083 0.1186489 -0.7751845 0.6575847
negotiations -0.6112395 1.9321135 0.0120816715 -0.9343711 -0.76289064 0.64412785 -1.2176514 0.6264601 -0.9482254 1.8572319
blake -0.21490155 0.16684683 1.4000683 -0.23040153 -1.6282902 -0.74167466 1.4213301 0.28394562 -0.890893 -0.3070501
huge 0.9253746 0.3337402 -0.17476034 0.105520196 -0.7404147 -0.60874736 -0.17254052 0.38036072 -0.8865896 0.044987425
rafter -0.6070409 0.07173827 0.05672078 1.6031823 -0.8828579 0.95399904 1.3580332 1.4197375 -1.6670743 -0.12942515
beyond 0.49324438 -0.1348872 -1.6725678 -0.14632595 1.2982948 0.58408207 0.9354734 1.1629751 -1.3211532 1.703677
rather -1.7405294 0.055496484 -1.6239543 -1.8414257 -2.131645 -0.94664437 1.1143181 -3.4818158 -1.8844262 -1.6974831
beginning 0.46603736 0.87691796 -0.7177989 -0.11856896 -0.62546843 -0.07998745 -0.86963475 1.3275365 -2.1478891 -0.96365476
sir 0.09392231 0.22458756 1.1799563 0.2637461 -0.57562053 0.56436455 1.1858664 -0.11954599 -0.471165 0.42605048
glenn -0.14536433 1.7347347 2.0141504 1.411843 -1.9572074 1.4286448 1.0801911 1.6090758 -1.2131894 -0.7076921
business 0.67441267 0.98418427 -0.5179305 0.33231264 0.03223811 0.5676595 0.6859072 -0.66407865 -0.7417705 0.06438817
afternoon 1.2653 0.58767796 0.38717088 0.22774634 -1.182027 0.8913568 1.171177 1.8232138 -0.4594721 -0.42510632
struck 1.7803732 0.48663053 -0.37107408 0.26242915 -1.0206324 -1.5561663 1.0880777 1.5986389 -0.6561888 -0.8478215
intelligence 0.8361232 0.41898128 1.0925616 0.37565076 -0.19331916 -1.9149731 -1.1226631 -1.4625138 -1.8187225 1.3000433
ensure 1.9856493 0.74140644 -1.0373882 0.054912865 0.63802576 2.0833113 1.5373483 -1.048645 -0.6095262 1.9277713
virus 0.4647775 1.3238599 -0.68664753 1.831944 1.0682254 0.13964297 1.2876931 -1.51959 -0.88339776 -0.16176681
period -0.91182286 2.1254475 -0.993075 0.9057394 -1.7559749 1.5912063 -0.6873879 1.4060831 -1.0165787 0.48929715
big 1.3596628 0.8097035 -1.5711209 0.58251756 -0.344238 1.5729651 1.7264519 0.9503209 -0.17643125 0.63090324
tennis 0.036741998 1.2520323 -1.1792486 1.1214343 -0.692205 2.6857536 1.9215157 1.060875 -0.7079216 1.0110092
islands 1.0625606 1.8344656 0.76034963 -0.15316617 -0.39043686 0.765208 -0.297649 -0.889652 -1.2938718 -1.1154933
car 0.50685024 0.95255446 -0.47340468 -0.21284881 -1.0552034 -0.765488 0.5811916 0.20843801 0.047694094 0.5522911
having 0.82128376 -0.35881278 0.58673704 0.18323065 -0.94119865 -0.03141472 1.0601308 1.3226355 -1.0377777 0.78891677
commander 0.77201235 0.16698803 -0.41026115 -0.27971897 0.5004499 -2.4654186 -1.0483375 1.1451788 -1.4731534 1.7638998
appeared 0.40271568 0.87599254 -0.7767938 -0.13860376 -0.54118264 -0.15115257 0.35027862 0.48550287 -0.1398782 0.7230845
step 0.9680534 -0.20691012 -0.2518725 0.59716314 0.49472725 1.4475543 0.7591301 0.017377125 -1.5767839 0.66583633
powell 0.7923925 -0.6972014 1.2369477 -0.59971535 0.51886225 -0.5110517 0.5933285 -1.1845691 -2.348081 0.9496772
strike 0.79282296 0.063701294 0.7904319 -0.016398184 -0.83201444 0.4637688 0.27007416 -1.162702 -0.9053235 1.8658391
crowd 0.5689948 0.54162633 -0.5881563 0.6150597 -0.34674367 1.3393067 1.8510023 0.969541 -0.51380724 -0.7676819
whose -0.0041469913 1.2376194 0.2516017 0.22628751 -1.3264452 -1.1599495 0.9503166 0.6577852 0.3426384 -0.057673577
expect 1.4591693 -0.143168 -0.39165115 0.48798016 -0.122705236 1.6572431 1.5708292 -0.9856536 -1.4552956 1.2511461
ever 0.38923723 0.4375127 -0.7705876 -0.49569628 -0.464954 0.15956327 0.7215546 -0.80576473 -0.18846744 1.8199528
runs -0.48228377 0.97777796 -0.4334051 1.1264218 -1.4289939 1.2214249 -0.2677532 1.6542865 -1.9443344 -0.8216464
commanders 1.1710569 0.35377645 -0.93181753 -1.0491741 1.786496 -2.0113864 -0.12478896 0.37214258 -1.833911 1.3464142
suharto 0.62477344 0.21295743 1.7834566 -0.41370395 -0.6436177 -1.1941592 0.5489212 1.1383126 -2.2076523 -0.668892
airlines 0.56792843 1.3345144 0.2420421 1.1385616 -0.94494057 0.5542507 0.2317475 -0.4983146 -0.9214596 0.6457588
market -0.27634114 1.9041585 0.32889152 0.6615234 -0.13374363 0.54071355 0.48202586 -0.51662445 -0.43445745 1.2386304
nauru 1.2009634 0.9767977 -0.7242188 -0.22823355 -0.048804127 1.3809453 -0.19719598 -1.1964672 -1.6248926 0.15131088
ll 1.6823575 -0.6280448 -1.312283 0.105305634 0.9512199 1.9866997 1.963499 0.87917054 -0.53727996 2.12616
less 0.11463962 1.8496087 -1.7540818 -1.8195372 -1.6915723 -0.38501808 2.8824735 -2.0681715 0.42718038 -0.07491397
attorney -0.0585621 0.2165316 2.627861 -0.7433341 -1.9115057 0.09022936 0.45258617 -0.5478253 -2.939348 1.8580191
